%YAML 1.0
---
opencv_ml_svm:
   format: 3
   svmType: EPS_SVR
   kernel:
      type: LINEAR
   C: 1.0000000000000000e-02
   p: 1.0000000000000001e-01
   term_criteria: { epsilon:1.0000000000000000e-03, iterations:1000 }
   var_count: 3780
   sv_total: 1
   support_vectors:
      - [ -2.21952470e-03, -2.57098582e-03, -1.22116762e-03,
          1.05170859e-03, 1.08500384e-03, -1.80144550e-03,
          -1.81674806e-03, -5.82982611e-04, -2.25239713e-03,
          7.56086258e-04, -9.97321447e-04, -1.50420718e-04,
          1.74292910e-03, 3.59943276e-03, -3.04055493e-03,
          -3.50031187e-03, -7.15121103e-04, -9.67760046e-04,
          1.10763521e-03, -4.60860785e-04, -5.75996353e-04,
          6.21454325e-04, 1.20189565e-03, -6.11590513e-04,
          -3.14352545e-03, -2.45565921e-03, 1.01422964e-04,
          3.90780112e-03, 2.51366617e-03, 7.30272674e-04, 8.32124613e-04,
          4.35560942e-03, -1.93736912e-03, -2.08556862e-03,
          -1.40335946e-03, 2.58055376e-03, -9.20938270e-04,
          2.41667411e-04, 6.31914532e-04, -5.42548427e-04,
          2.16243812e-03, -9.89193330e-04, -3.50792496e-03,
          -2.14345660e-03, -2.52650748e-03, -5.78126113e-04,
          1.52537692e-03, 6.99722441e-04, -1.98225095e-03,
          5.72933757e-04, -2.66535394e-03, -4.18452779e-03,
          -4.94243437e-03, -2.46726535e-03, 2.93147285e-03,
          2.97146034e-03, 2.55305599e-03, 2.50713172e-04, 2.67825508e-03,
          -3.97582306e-04, -6.11257099e-04, -7.43683893e-04,
          -1.65677164e-04, 4.30930592e-03, 4.29237587e-03,
          3.84970382e-03, 1.19728164e-03, 2.54421402e-03,
          -2.64467322e-03, -2.85900175e-03, -2.71553383e-03,
          -9.01924388e-04, -1.48838328e-03, 9.97622265e-04,
          1.20016863e-03, -6.11537951e-04, -1.58251074e-04,
          -3.21147521e-03, -5.71897207e-03, -3.66863189e-03,
          -3.44448630e-03, -1.80138682e-03, 2.82813748e-03,
          2.36727623e-03, 9.20059800e-04, 1.72144652e-03,
          -8.14979663e-04, -6.22881623e-03, -4.43847338e-03,
          -3.37601826e-03, 3.08390683e-03, 6.04312634e-03,
          5.31354873e-03, -2.50518060e-04, 1.05953019e-03,
          -3.66514316e-03, -4.71452205e-03, -2.78783753e-03,
          -3.09144356e-03, 3.95852746e-03, 8.92933179e-03,
          7.65978685e-03, 1.55130937e-03, 2.63807946e-03,
          -1.56929356e-03, -6.23381976e-03, -2.35406170e-03,
          -1.25697243e-03, -1.62157917e-03, 3.55837611e-03,
          9.39317571e-04, 1.61131483e-03, 2.00023293e-03,
          -1.62558848e-04, -6.11092895e-03, -4.09506494e-03,
          -3.48498928e-03, 3.26699024e-04, 2.03557662e-03,
          -7.62936426e-04, 6.50335976e-04, 1.42826501e-03,
          -1.76451955e-04, -4.85891476e-03, -3.16915615e-03,
          -1.68478140e-03, 2.48926529e-03, 7.01794587e-03,
          3.33283213e-03, 1.11305807e-03, 2.25632568e-03, 6.20723586e-04,
          -6.68176915e-03, -4.11226507e-03, -1.99381774e-03,
          4.96051274e-03, 6.21402124e-03, 3.43030621e-03, 1.26610731e-03,
          1.25479978e-03, -2.38033736e-05, -5.37313567e-03,
          -4.33608703e-03, 2.64704577e-04, -1.94797773e-04,
          -1.43558311e-03, -1.97286368e-03, -5.53275866e-04,
          1.80053641e-03, -2.11550971e-04, -3.03065334e-03,
          -2.61899922e-03, -2.14469808e-04, 7.83122159e-05,
          -2.88386643e-03, -2.44996650e-03, -1.04459445e-03,
          5.60166314e-04, -5.11463673e-04, -1.68957573e-03,
          2.09157565e-03, 8.05852877e-04, 4.79830429e-03, 3.57297366e-03,
          7.42734919e-05, 9.07977577e-04, 1.01032748e-03,
          -1.64913328e-03, -7.94631056e-03, -3.63036199e-03,
          2.05318094e-03, 3.22034326e-03, 2.61072116e-03,
          -8.80224979e-04, 1.32565491e-03, 8.60024767e-04,
          5.11721766e-04, -9.00213665e-04, 4.77175275e-03,
          4.47891792e-03, -3.08331312e-03, -2.20502075e-03,
          -8.28220451e-04, -7.31199165e-04, 1.34799164e-03,
          -1.18557306e-04, -4.94542590e-04, 2.78533320e-03,
          7.25571939e-04, -4.29816125e-03, -3.51183326e-03,
          -2.96315411e-03, -2.32965383e-03, 6.56656688e-04,
          8.41984525e-04, -1.08205923e-03, 1.10838388e-03,
          -1.70145440e-03, 2.76145845e-04, 3.19720653e-04,
          -1.50116626e-03, 7.21631921e-04, 1.63195119e-03,
          8.16239801e-04, 1.16906594e-03, 5.65548567e-03, 3.34071927e-03,
          -4.33148321e-04, -5.21720620e-03, -7.07203941e-03,
          1.69314165e-03, 2.23267870e-03, 9.54175019e-04, 1.61156058e-03,
          4.46666218e-03, 1.90110179e-03, -3.14190774e-03,
          -2.26892508e-03, -6.59170048e-03, -3.82847455e-03,
          1.11420103e-03, 4.67391917e-04, -5.48627693e-04,
          1.26021192e-03, 3.82421349e-05, -3.12540284e-03,
          -1.88558281e-03, -5.29581634e-03, -5.18364739e-03,
          4.94069885e-04, 3.90005211e-04, -2.48131895e-04,
          -8.87335336e-04, -1.03357353e-03, 2.64574727e-03,
          -5.24165342e-03, -4.27560695e-03, 1.88527373e-03,
          3.86251207e-03, 2.71704327e-03, 2.39829067e-03, 6.39279094e-03,
          3.39144212e-03, -7.19623873e-04, -5.22613619e-03,
          -6.25908049e-03, -1.49256433e-03, 2.76113371e-03,
          9.61585494e-04, 1.14665064e-03, 4.38806601e-03, 3.41688539e-03,
          -9.37628560e-04, -5.77008468e-04, -6.37600292e-03,
          -5.58447791e-03, -3.32610076e-03, -7.49929575e-04,
          -3.94088653e-04, -7.20608339e-04, 1.66274476e-05,
          3.46079498e-04, 8.11365098e-05, -1.42338290e-03,
          -7.28569925e-04, 1.27231108e-03, -1.30767270e-03,
          -1.20860978e-03, -7.79650582e-04, 4.68434067e-04,
          1.19921903e-03, -2.80902092e-03, -4.47158935e-03,
          -2.90279626e-04, 8.36272899e-04, -2.68970434e-05,
          5.67812764e-04, 4.48533799e-03, 5.33061987e-03, 2.95612216e-03,
          -1.35077199e-03, -6.73253671e-05, -3.61230777e-04,
          4.40333970e-04, -1.18241238e-03, 4.63130164e-05,
          3.18673486e-03, 6.24946319e-03, 4.07239531e-05,
          -7.25209306e-04, -1.02244131e-03, -4.45496553e-04,
          2.05897284e-03, -1.89943803e-05, -5.19124558e-03,
          -2.51722569e-03, 4.86773788e-04, -1.07210397e-03,
          -8.83787579e-04, 1.22356298e-03, 2.85885716e-03,
          1.78351765e-03, 1.19393389e-03, -3.33545520e-03,
          -2.09689769e-03, -4.31062188e-04, 1.78804703e-03,
          -8.48797790e-05, 2.99074384e-03, 5.25172043e-04,
          2.59855646e-04, -1.69463980e-03, -4.76805354e-03,
          -1.47008477e-03, 2.03109300e-03, 1.27988181e-03,
          1.49534305e-03, 3.16360476e-03, 2.94579472e-03, 1.34544843e-03,
          -4.92738967e-04, -7.50102289e-03, -3.72188445e-03,
          1.05698477e-03, 1.96795270e-04, 6.89743203e-04, 1.53686921e-03,
          6.08058646e-04, -2.97358981e-03, -7.70938714e-05,
          -4.37444600e-04, 2.53051894e-05, 3.87741224e-04,
          -8.51756078e-04, 1.41244079e-03, 8.28390941e-04,
          -2.15888396e-03, -7.02835340e-03, -3.44345719e-03,
          -2.55593623e-04, 8.57497944e-05, -5.56740502e-04,
          5.38913440e-03, 3.43498308e-03, 3.50403506e-03, 2.11185985e-03,
          -1.83845812e-03, -2.08346624e-04, -2.26395932e-04,
          1.17125642e-03, 3.69366957e-03, 4.82647261e-03, 3.24956374e-03,
          -3.30115174e-04, -2.85150926e-03, -7.82809127e-03,
          -4.85102320e-03, 5.27110067e-04, 1.48928189e-03,
          4.42868657e-03, 3.18149163e-04, 1.60164293e-03, 1.30650424e-03,
          -2.69498967e-04, -6.40758546e-03, -2.20366521e-03,
          6.10411109e-04, -7.67621153e-04, -1.71123783e-03,
          6.72603142e-04, 1.61604758e-03, 2.48261844e-03, 1.47525209e-03,
          -5.70291537e-04, -1.57865963e-03, 9.11307870e-04,
          -1.60809737e-04, 2.53706094e-04, 4.07789554e-03,
          3.98833910e-03, 3.31873889e-03, -1.22497161e-03,
          -5.28150657e-03, -3.45122465e-03, 8.44567490e-04,
          3.85113002e-04, 2.21248972e-03, 5.00421831e-03, 5.51914796e-03,
          5.45423757e-03, 1.41684175e-03, -8.45710048e-04,
          -1.34421547e-03, 2.61724752e-04, 1.25636277e-03,
          4.04194091e-03, 4.29779640e-04, 1.50211260e-03, 1.85111759e-03,
          1.59698655e-03, -2.63275788e-03, -1.48890098e-03,
          -1.72246760e-03, -7.11418397e-04, 8.65476613e-04,
          -3.82210594e-04, 1.58545759e-03, 1.22102571e-03,
          3.34866403e-04, -4.38359706e-03, -5.04096970e-04,
          -4.75528790e-03, -8.67992756e-04, 6.75970106e-04,
          5.16976835e-03, 6.40479103e-03, 5.80825517e-03, 3.17135593e-03,
          -2.38249823e-03, -1.43416843e-03, -3.94658279e-03,
          9.92608955e-04, 3.58188641e-03, 3.74468020e-03, 5.69792604e-03,
          2.85570836e-03, 1.22014736e-03, -2.71940604e-03,
          1.64943958e-05, -2.52725580e-03, 9.23046784e-04,
          2.95664556e-03, 5.47243457e-04, 2.09533307e-03, 1.32103881e-03,
          -4.22400277e-04, -3.46658239e-03, -4.95268789e-04,
          -6.99708005e-04, 7.75908236e-04, 1.51361979e-03,
          -9.15082521e-04, 1.73602230e-03, 7.93726416e-04,
          1.74427900e-04, -2.81185820e-03, -5.29345032e-03,
          -5.49581181e-03, 4.75748035e-04, 1.95393168e-05,
          5.09168534e-03, 3.86538589e-03, 1.36538094e-03,
          -3.16039077e-04, -2.27561942e-03, 1.05024774e-04,
          1.47179386e-03, 5.04465587e-03, 4.75238496e-03, 2.12582154e-03,
          3.68527649e-03, 2.11487059e-03, 2.52855913e-04,
          -2.06784671e-03, -2.12853774e-03, -1.39353180e-03,
          5.89923421e-03, 6.05186122e-03, -1.06621755e-03,
          4.90816252e-04, 5.91249147e-04, 1.52516854e-03, 1.62306288e-03,
          -4.04717494e-03, -4.95237485e-03, -1.02424622e-03,
          -1.01530016e-03, -2.13903119e-03, 5.74249134e-04,
          9.57721088e-04, 3.39281396e-03, 3.24260700e-03,
          -4.05632396e-04, -1.78483792e-03, 3.33178410e-04,
          -1.71379186e-03, 4.07218235e-04, 2.07282091e-03,
          1.65385951e-03, 1.33117300e-03, 1.72177519e-04,
          -3.14514316e-03, -1.14387507e-03, 5.33911493e-03,
          5.23635419e-03, 5.04038646e-04, 6.46453875e-04, 8.64762464e-04,
          2.13965797e-03, 1.89330976e-03, -7.14460097e-04,
          -1.48027856e-03, 2.44584912e-03, 3.19428882e-03,
          -2.91785691e-03, 1.12879043e-03, 1.35383266e-03,
          3.22691281e-03, 3.55744176e-03, 2.03242828e-03, 1.86134595e-03,
          2.88557960e-03, -1.93715654e-03, -2.24880478e-03,
          1.37173175e-03, 1.71999668e-03, 4.27766936e-04,
          -2.00418406e-03, -1.89014873e-03, -2.15548277e-03,
          1.90901628e-05, -3.41107021e-03, -3.88145883e-04,
          -3.96521704e-04, 9.67895670e-04, 1.48432248e-03,
          3.04955360e-03, 3.39232944e-03, 3.03183263e-03, 3.38071189e-03,
          8.87054601e-04, -1.74445522e-04, -7.60337745e-04,
          1.48828037e-03, 1.15078047e-03, -1.85481855e-03,
          -9.74622730e-04, -2.27627446e-04, 3.19635007e-03,
          -1.00090657e-03, 5.05818520e-04, 1.50577442e-04,
          3.52939969e-04, -1.27517909e-04, 1.01666548e-03,
          8.99556500e-04, -2.96771410e-03, -2.97078956e-03,
          4.00910008e-04, 3.85780097e-03, 1.60491816e-03, 1.77118229e-03,
          -7.95682572e-05, 9.07975889e-04, -5.96180507e-05,
          -2.55187624e-03, -2.83987750e-03, 2.38572108e-03,
          -9.48121015e-04, -3.42822226e-04, -2.14928965e-04,
          -6.83940423e-04, 3.05000227e-03, 8.87670205e-04,
          -2.20406195e-03, -3.09554581e-03, -2.08320707e-04,
          1.00658333e-03, 4.90254082e-04, 3.61454859e-03, 1.30394846e-03,
          3.44463508e-03, 2.28861952e-03, -2.87238252e-03,
          -3.66406143e-03, -1.55095229e-04, 3.71053931e-03,
          2.98151071e-03, 1.38101343e-03, -1.18103332e-03,
          -4.20350395e-03, -1.45857106e-03, -2.97005079e-03,
          -3.64678353e-03, 1.35500717e-03, 4.21396131e-03,
          3.82408057e-03, 4.73366631e-03, 1.06146757e-03,
          -1.15668948e-03, -3.74348252e-03, -3.82630248e-03,
          -3.84059106e-03, -7.16761278e-05, 1.50393229e-03,
          2.09436216e-03, 4.54768958e-03, 9.39641905e-04,
          -9.73194838e-04, -2.86385388e-04, -3.93470889e-03,
          -3.31398635e-03, -8.29998695e-04, 3.45303165e-03,
          4.09337133e-03, 7.80818751e-03, 5.64655755e-03,
          -1.66718184e-03, -4.05343762e-03, -6.52941503e-03,
          -5.24945511e-03, -8.02780909e-04, 2.19581509e-03,
          4.49418556e-03, 4.10212716e-03, 8.14262603e-04, 6.08546019e-04,
          -3.16053093e-03, -3.32579529e-03, -1.51002652e-03,
          -2.49561109e-03, 7.51425803e-04, 5.83395595e-03,
          5.30841760e-03, 1.64012914e-03, 5.24536474e-04,
          -3.05607449e-03, -4.42347117e-03, -1.41858507e-03,
          -1.58225128e-03, 2.51702056e-03, 3.24121513e-03,
          4.81286459e-03, 3.69029492e-03, -1.35601056e-03,
          -4.26206691e-03, -6.24598144e-03, -4.63182945e-03,
          -2.71458481e-03, -2.00094166e-03, 4.58261743e-03,
          7.06736557e-03, 3.74737941e-03, -2.01543071e-03,
          -4.61193919e-03, -5.77357877e-03, -3.17237736e-03,
          -2.33211229e-03, 9.11930401e-04, 5.32860123e-03,
          3.76934931e-03, 6.90700952e-04, -1.67044287e-04,
          -9.88480402e-04, -4.55547171e-03, -2.11820612e-03,
          -1.65097381e-03, 2.98036751e-03, 7.06274761e-03,
          4.86666430e-03, 2.07737274e-03, 2.44935130e-04,
          -9.69922461e-04, -5.32514369e-03, -3.17170168e-03,
          -4.41151555e-04, -2.96302582e-03, 2.28029350e-03,
          3.10749840e-03, 1.26325665e-03, -1.63562200e-03,
          -4.65156510e-03, -3.77133652e-03, -1.05377438e-03,
          -1.51547790e-03, -2.12931633e-03, 2.19776877e-03,
          1.89942378e-03, 3.03720310e-03, 8.46611074e-05,
          -3.12353441e-05, -2.41476344e-03, -5.72608144e-04,
          -9.46358021e-04, 3.67720192e-03, 4.17059660e-03,
          1.92303711e-03, 1.78355898e-03, -1.49468324e-04,
          -1.94115390e-03, -4.29544039e-03, -1.35631440e-03,
          6.93576818e-04, 2.16955086e-03, -1.20670872e-03,
          -2.27961666e-03, 2.24858918e-03, 1.90087408e-03,
          1.58592104e-03, 1.14601816e-03, 2.30782246e-03, 2.45229178e-03,
          -4.37604543e-03, -5.06239652e-04, 1.20031822e-03,
          2.84704450e-03, 7.76890607e-04, 1.90344326e-05,
          -3.08617461e-03, -1.69638114e-03, -2.10476643e-03,
          -3.23747448e-03, -2.32203212e-03, -2.33584060e-03,
          3.67974374e-03, 2.79688695e-03, 2.54246825e-03, 1.05159284e-04,
          -8.87855014e-04, -1.57154317e-03, 4.91248502e-04,
          -2.32063211e-03, -3.11094802e-03, 2.11910531e-03,
          2.10475549e-03, 1.76070328e-03, 2.67014187e-03, 3.35707027e-03,
          3.63819441e-03, -7.04965860e-05, -3.01258522e-03,
          -5.90043468e-03, 1.77883089e-03, 1.88063330e-03,
          -6.81990132e-05, 1.79772091e-03, 3.57140484e-03,
          3.73572065e-03, -9.98774543e-04, -2.73672608e-03,
          -2.85153301e-03, 3.45747196e-03, 2.44627264e-03,
          3.18577257e-03, 1.23762724e-03, 2.50823359e-04, 4.90215141e-04,
          8.01605463e-04, -2.92429747e-03, -2.60653859e-03,
          1.98132335e-03, 1.51821948e-03, -6.36157120e-06,
          5.96132013e-04, 8.41667759e-04, 2.10247841e-03, 2.13932060e-03,
          -8.18248373e-03, -8.23962968e-03, 2.25195964e-03,
          1.74721389e-03, 1.79188827e-03, 1.89850549e-03, 4.52460535e-03,
          4.53578820e-03, 5.55678707e-06, -4.59761173e-03,
          -6.05071383e-03, 5.23853349e-04, 1.83238869e-03,
          4.30374610e-04, 1.28706917e-03, 4.52584354e-03, 3.58372857e-03,
          7.95863743e-04, -1.64859812e-03, -1.47531531e-03,
          2.92430818e-03, 2.14580027e-03, 1.43158564e-03, 9.80855664e-04,
          1.69484445e-03, 2.87053059e-03, 7.83288444e-04,
          -6.95085502e-04, -8.70655407e-04, 3.00443126e-03,
          2.92559923e-03, 1.64549635e-03, 2.53127143e-03, 3.83915892e-03,
          2.22978904e-03, -8.66134011e-04, -3.31989047e-03,
          -3.50509072e-03, 2.71480298e-04, 1.21041812e-04,
          -5.97213046e-04, -2.07279692e-03, 4.28860402e-03,
          3.66279529e-03, -1.53600040e-03, -2.42181099e-03,
          -1.26698893e-03, -1.03683141e-03, -6.90287619e-04,
          -6.35474513e-04, -3.86721385e-03, 2.55048438e-03,
          3.31505947e-03, 1.09576038e-03, -7.55232410e-04,
          3.72879476e-05, 2.33126036e-03, 2.88511417e-03, 2.45252787e-03,
          1.76557363e-03, 5.13525726e-03, 3.97251965e-03, 9.80293378e-04,
          1.02789281e-03, 4.66699566e-04, -5.19829802e-04,
          1.78689440e-03, 2.27782293e-03, -1.20345212e-03,
          4.43315692e-03, 3.89679777e-03, 1.13183423e-03,
          -6.07508293e-04, 2.64810701e-03, 4.45076119e-04,
          -1.99332414e-03, -8.04719166e-04, -3.12915049e-03,
          7.89314450e-04, 2.86044460e-03, 2.96945381e-03, 2.50025606e-03,
          1.84640719e-03, 8.33594182e-04, -1.65267964e-03,
          -9.69552086e-04, -4.96433536e-03, -3.63222382e-04,
          2.38508079e-03, 9.77286021e-04, 1.50105462e-03, 2.81661894e-04,
          -1.34678511e-03, -1.13949517e-03, 1.52783864e-03,
          -2.14135693e-03, 2.02081981e-03, 2.74990289e-03,
          3.78959556e-03, 1.97479432e-03, 1.37087598e-04,
          -9.57498327e-04, -1.17727323e-03, 4.04217455e-04,
          -2.95151630e-03, 1.78067968e-03, 4.24157269e-03,
          4.38203337e-03, 3.88049637e-03, 2.22303416e-03,
          -4.47085680e-04, -2.60012224e-03, -5.72063378e-04,
          -6.83406077e-04, 1.55769638e-03, 3.16472026e-03,
          3.89544014e-03, 3.18466267e-03, -1.66474411e-03,
          -3.44890240e-03, -8.97510443e-03, -5.51915169e-03,
          2.85711576e-04, 1.58243242e-03, 3.58351320e-03, 5.21241734e-03,
          1.99713674e-03, -1.52086781e-03, -2.27853446e-03,
          -2.04911712e-03, -5.95824851e-04, 1.52575888e-03,
          4.79520345e-03, 6.27541309e-03, 5.39009273e-03, 2.70907325e-03,
          -1.06242090e-03, -3.24392016e-03, -7.30990944e-03,
          -6.05814857e-03, 9.52273491e-04, 5.07402001e-03,
          5.76890726e-03, 2.74623744e-03, 3.30384658e-03, 1.44092063e-03,
          -2.29427335e-03, -6.73740264e-03, -4.48879739e-03,
          6.24243461e-04, 1.30331016e-03, 2.59532034e-03, 4.19761427e-03,
          5.10009378e-03, 5.53664286e-03, -1.91109371e-04,
          -3.56264878e-03, -2.15104152e-03, 2.81750807e-04,
          1.58325082e-03, 3.04506836e-03, 4.14613402e-03, 3.84411635e-03,
          5.36208507e-04, -2.53169378e-03, -7.83609692e-03,
          -4.38197143e-03, -1.59611728e-03, 2.47857836e-03,
          2.66208919e-03, 4.76650801e-03, 4.87205246e-03, 4.09882050e-03,
          -4.45223210e-04, -4.62221913e-03, -2.42237910e-03,
          6.79938064e-04, 2.46785977e-03, 4.22758702e-03, 2.99711223e-03,
          4.81951796e-03, 4.11189115e-03, 1.49756612e-03,
          -3.41818854e-03, -1.12353696e-03, -3.76890041e-03,
          6.56508026e-04, 1.87511591e-03, 7.36307178e-04, 2.41263048e-03,
          1.18173263e-03, 8.43002563e-05, -1.75023824e-03,
          -1.37345050e-05, -3.95413069e-03, -4.86675999e-04,
          1.23129471e-03, 4.70729358e-03, 4.91740555e-03, 3.14347679e-03,
          1.54852984e-04, -3.67489317e-03, -3.24659370e-04,
          -1.59748201e-03, 2.03581364e-03, 4.80291620e-03,
          4.44007572e-03, 3.59021965e-03, 2.74277362e-03, 2.33874147e-04,
          -2.56363419e-03, 2.31260754e-04, -1.27194694e-03,
          1.56052539e-03, 3.51188495e-03, -4.95257846e-04,
          1.14522816e-03, 1.13331123e-04, -7.69213890e-04,
          -1.56616722e-03, -1.95408807e-04, -1.37447577e-03,
          2.87791272e-03, 1.19800156e-03, -8.35597340e-04,
          2.41253409e-03, 2.01926637e-03, 2.90598749e-04,
          -2.38959701e-03, -1.21296081e-03, -5.39365225e-04,
          6.09722640e-03, 2.46031326e-03, 3.49657959e-03, 2.89602275e-03,
          2.13032006e-03, -3.93461632e-05, -2.19244557e-03,
          -9.11801180e-04, -1.55563490e-03, 1.42122281e-03,
          4.50581452e-03, 2.24842899e-03, 3.09485593e-03, 2.83202110e-03,
          8.56102444e-04, -3.04572633e-03, -2.19729089e-04,
          -1.90344697e-03, 4.13358910e-03, 4.67805145e-03,
          -8.75614292e-04, 1.17901049e-03, 1.20771758e-03,
          9.36028664e-04, -1.44993712e-03, -3.06257652e-03,
          -5.93027798e-04, 6.62235497e-03, 2.91654165e-03,
          -6.91845373e-04, 2.03335298e-06, -4.95217158e-04,
          -1.60816708e-03, -1.75066886e-03, -3.78864672e-04,
          -1.96261890e-03, 4.89858026e-03, 2.12454074e-03,
          2.98083131e-03, 1.63859501e-03, 2.66420399e-03, 6.02044049e-04,
          -2.20190571e-03, -7.68705213e-04, 3.87190143e-04,
          5.94103243e-03, 5.91108901e-03, 3.61037324e-03, 1.51549594e-03,
          -4.78489732e-04, -2.28354661e-03, -6.57485379e-03,
          -2.32534972e-03, -2.11245124e-03, 6.32988010e-03,
          5.56201488e-03, 2.03815740e-04, 5.48256903e-05, 6.77743155e-05,
          -1.58049678e-03, -1.15149007e-04, 1.18934771e-03,
          -7.17845163e-04, 3.41018196e-03, 2.13166722e-03,
          1.44112229e-04, -9.66888503e-04, 1.46153310e-04,
          -1.01913430e-03, -1.76685839e-03, -3.66820052e-04,
          -9.14445438e-04, 3.30263516e-03, 1.33417314e-04,
          4.57107741e-03, 2.21768487e-03, -2.11343417e-04,
          -2.03221571e-03, -6.18987484e-03, -2.35708826e-03,
          -3.31720966e-03, 4.39796597e-03, 4.39614803e-03,
          2.65023042e-03, 8.46100505e-04, 8.93102377e-04,
          -1.15311088e-03, -3.02470010e-03, 3.51871975e-04,
          1.95285352e-03, 3.87681904e-03, 4.23257006e-03,
          -1.03659520e-04, -2.13715088e-04, -2.26553925e-03,
          -1.30465988e-03, 2.17935024e-03, -1.17141323e-03,
          -2.68318853e-03, -3.58730438e-03, -5.15106425e-04,
          -2.46354408e-04, -8.37399682e-04, -3.69007728e-04,
          1.77027786e-03, 3.14531755e-03, 1.90231673e-04,
          -3.68806696e-03, -4.45769075e-03, -2.19417736e-03,
          3.82604892e-04, -2.33665087e-05, -3.29515035e-03,
          3.64190710e-05, 3.75750381e-03, -1.38634595e-03,
          -1.17576041e-03, -1.52648578e-03, 4.26824001e-04,
          -6.78309298e-04, -5.19346795e-04, -9.19884245e-04,
          1.57100719e-03, 6.25600433e-03, -2.51415113e-05,
          -1.36067439e-03, -2.44099554e-03, 1.10493551e-04,
          1.32749818e-04, -3.36430821e-04, 2.71500601e-03,
          1.08937465e-03, -1.45847525e-03, 2.48544005e-04,
          -3.58346128e-03, -3.18798539e-03, -1.08434097e-03,
          1.00270868e-03, 1.26604026e-03, 6.48425473e-03, 4.10828879e-03,
          -2.90791411e-03, -4.36067767e-03, -7.71981478e-03,
          -6.80772914e-03, -1.98486494e-03, 1.49473213e-04,
          -3.24037363e-04, 2.88428599e-03, 5.23409992e-03,
          3.52670718e-03, -3.60887905e-04, -1.04135857e-03,
          -1.35600590e-03, 1.25815146e-04, 3.25525383e-04,
          2.50989600e-04, 5.85799804e-03, 6.48402423e-03, 3.27644125e-03,
          -9.67574946e-04, -2.72721518e-03, -3.00941220e-03,
          -6.78725191e-04, -2.84996418e-06, 1.90615142e-03,
          6.89328462e-03, 5.24527999e-03, 8.84492998e-04,
          -3.15592578e-03, -5.52520715e-03, -4.94295405e-03,
          -2.27748207e-03, -3.05585843e-03, 2.80117174e-03,
          5.60777774e-03, 3.43386317e-03, -3.65012849e-04,
          -3.74416402e-03, -4.78159171e-03, -4.05356800e-03,
          -3.79902986e-03, -1.50682079e-03, 4.64110781e-04,
          6.75610406e-03, 7.36306095e-03, 3.28833726e-03, 1.87793208e-04,
          -3.02360975e-03, -2.80761183e-03, -2.03563971e-03,
          -2.24755215e-03, 2.29553203e-03, 5.36235562e-03,
          6.56000571e-03, 9.03684006e-04, -1.42843858e-03,
          -4.93932329e-03, -5.10912901e-03, -4.96699987e-03,
          -2.31388560e-03, 1.09221018e-03, 3.33469594e-03,
          2.49098474e-03, 2.51851918e-04, -4.24779952e-03,
          -3.72490217e-03, -8.14817846e-04, -1.63045502e-03,
          -1.86652737e-03, 3.61557497e-04, 2.90879980e-03,
          6.17354922e-03, 3.84546188e-03, 1.53974048e-03, 2.29551806e-04,
          -3.03476874e-04, -5.29821613e-04, -1.10812450e-03,
          1.68862322e-03, 3.61493812e-03, 4.73858323e-03, 1.56796028e-04,
          -2.10079621e-03, -4.98399511e-03, -3.85909481e-03,
          -3.80079076e-03, -1.49622723e-03, -6.05204958e-04,
          3.25874338e-04, 5.19747054e-03, 3.10196704e-03, 4.40719334e-04,
          -2.49028299e-03, -1.49815471e-03, -2.25299830e-03,
          -7.22315814e-03, -2.84336461e-03, 1.74271339e-03,
          5.15282992e-03, 2.59696646e-03, 1.54223212e-03,
          -1.05277647e-03, -1.67775142e-03, -3.06757633e-03,
          -5.78185031e-03, -3.85762379e-03, 1.12555875e-03,
          5.97191788e-03, 5.20370575e-03, 3.44930589e-03,
          -7.27738312e-04, -1.62543752e-03, -4.37142653e-03,
          -3.04343202e-03, -1.26232253e-03, 9.47235327e-04,
          4.02176939e-03, 3.50608258e-03, 2.43812497e-03, 4.28847619e-04,
          -4.88330494e-04, -2.54462939e-03, -2.06139544e-03,
          2.28017964e-03, 3.28291464e-03, 5.58794197e-03, 5.44175133e-03,
          4.38508671e-03, 1.28336821e-03, 2.72402569e-04,
          -3.49161960e-03, -4.61124303e-03, -5.46426978e-03,
          4.94177330e-05, 5.30389743e-03, 5.62132057e-03, 5.60924178e-03,
          -2.08359212e-03, -1.96983269e-03, -2.98634940e-03,
          -5.51927194e-04, 1.01825444e-03, 1.89075142e-03,
          3.18259094e-03, 2.89713847e-03, 1.36950740e-03,
          -1.80118030e-03, -4.28643951e-04, -1.46173767e-03,
          -2.61108414e-03, 4.34858771e-03, 4.51119430e-03,
          5.39522246e-03, 5.62437903e-03, 5.80823049e-03, 1.73880265e-03,
          5.28893026e-04, -4.81387833e-03, -2.72002420e-03,
          3.52163939e-03, 3.31026525e-03, 3.87671287e-03, 4.13511554e-03,
          3.21572437e-03, -1.58638565e-03, 7.36882153e-04,
          -4.26016841e-03, -7.93191430e-04, 1.54480443e-03,
          2.65198620e-03, 3.31247738e-03, 3.20804399e-03, 9.76107316e-04,
          -1.42307987e-03, 1.03650827e-05, -9.65555373e-04,
          -1.40401057e-03, 4.87399433e-04, 2.49933754e-03,
          3.69480834e-03, 4.57966514e-03, 2.84769572e-03,
          -2.32116971e-03, -5.89451985e-04, -1.08814670e-03,
          -4.08152770e-03, 3.11958301e-03, 4.64471895e-03,
          5.41745173e-03, 6.21759938e-03, 2.36034696e-03,
          -4.93761804e-03, -8.69882759e-04, -5.21901064e-03,
          -4.37869830e-03, 1.37792074e-03, 2.64381035e-03,
          5.79355983e-03, 7.24091008e-03, 4.13522730e-03,
          -1.24244881e-03, -1.82971347e-03, -4.37475275e-03,
          -3.80975252e-04, 2.96494050e-04, 1.80217519e-03,
          2.26353155e-03, 3.87080037e-03, 3.23208608e-03,
          -1.10670738e-03, 9.25150351e-04, 6.53524185e-04,
          2.63907044e-04, 7.94167048e-04, -7.92356965e-04,
          -1.52588857e-03, 1.93737727e-03, 2.98356847e-03,
          6.59950951e-04, 3.06802941e-03, 1.14294467e-03,
          -2.80951709e-03, 4.27550287e-04, 2.02439795e-03,
          6.03507739e-03, 5.54152485e-03, 4.25188709e-03,
          -1.54504925e-03, -4.11259767e-04, -2.07543094e-03,
          -2.64388742e-03, -4.85587050e-04, 5.51892852e-04,
          -1.28331769e-03, 1.25673739e-03, 3.26883723e-03,
          -3.87495011e-03, 6.30067225e-05, -2.03872379e-03,
          2.31640646e-04, 5.58625907e-04, -2.41575320e-03,
          -1.91415043e-03, -8.52548925e-04, 3.18942964e-03,
          9.21481464e-04, 2.29666941e-03, 8.18453089e-04, 2.48063286e-03,
          3.49189708e-04, -1.19111512e-03, -6.81756355e-04,
          9.58641249e-05, 1.49607530e-03, -2.81459675e-03,
          1.22279348e-03, 3.73217068e-03, -1.13471306e-03,
          -3.58761230e-04, -1.62558432e-03, -1.20837602e-03,
          9.05141933e-04, 4.10164520e-03, 6.27983944e-04, 1.75036967e-03,
          -1.67772960e-04, 7.27211940e-04, 6.77955628e-04,
          -6.10473158e-04, -7.58312817e-04, 1.88378943e-03,
          2.82580452e-03, -1.49295619e-03, 5.74375037e-04,
          1.52792106e-03, 3.04232491e-03, 5.80842316e-04,
          -1.28094747e-03, -6.89123408e-04, 2.89388292e-04,
          4.13412432e-04, 4.16277815e-03, 5.43986773e-03, 5.48987836e-03,
          2.74068979e-03, 1.58283475e-03, -1.38598937e-03,
          -2.63207755e-03, -7.07427273e-03, -6.59726048e-03,
          -1.20072858e-03, 4.34609735e-03, 4.43766126e-03,
          5.91524062e-04, 6.62251376e-04, -1.89337225e-04,
          1.32447953e-04, -4.10518114e-05, 1.49839791e-03,
          2.14525289e-03, 1.47932966e-03, 1.17699325e-03,
          -2.16182088e-03, 6.73785456e-04, -3.51811832e-05,
          -1.21056481e-04, -2.24997476e-03, -1.14158134e-03,
          2.66531948e-04, 4.94945678e-04, -2.62872502e-03,
          3.92980454e-03, 3.96581786e-03, 2.12807767e-03,
          -6.59662182e-04, -5.06178848e-03, -2.12528929e-03,
          1.01189857e-04, 1.95908896e-03, 2.95829307e-03, 4.24108701e-03,
          3.71474307e-03, 3.28800525e-03, 1.68390732e-04,
          -4.60548885e-03, -3.81634920e-04, 1.43521314e-03,
          2.28902162e-03, 3.39202816e-03, -2.68126652e-03,
          3.11201764e-03, 3.57229752e-03, 1.28666614e-03,
          -4.42605140e-03, -7.32298999e-04, 1.54729793e-03,
          1.59336254e-03, -3.05300020e-03, -1.11141801e-03,
          5.21139149e-03, 5.32406056e-03, 9.94668575e-04,
          -4.91947588e-03, -1.59270159e-04, 1.58421043e-03,
          1.47825712e-03, -1.41902897e-03, 3.25895986e-03,
          3.69301927e-03, 2.31551728e-03, 3.33129894e-04,
          -4.93128877e-03, 6.35255768e-04, 1.81092240e-03,
          2.14578048e-03, 2.80668959e-03, 3.18855373e-03, 3.00161610e-03,
          2.27272557e-03, 1.59730669e-04, -3.55054042e-03,
          1.76758354e-03, 2.43199011e-03, 2.04401859e-03, 3.52180493e-03,
          2.30008765e-04, 5.11868391e-03, 4.80116345e-03, 1.48693682e-03,
          -7.92987179e-03, -2.40583462e-03, 5.45283314e-04,
          1.64613733e-03, 2.35668413e-04, 5.83246001e-04, 3.66579904e-03,
          4.30661999e-03, 1.85031933e-03, -1.91194715e-03,
          3.40926507e-03, 4.91565745e-03, 1.10733334e-03,
          -1.96668174e-04, 3.77722573e-03, 2.14671181e-03,
          2.38560699e-03, 8.65567767e-04, -3.81387654e-03,
          -2.59916123e-04, 1.46997755e-03, 2.14868109e-03,
          3.87207395e-03, 4.04489785e-03, 2.04120204e-03, 3.41699389e-03,
          1.62070699e-03, -4.62151645e-03, 5.94239973e-04,
          3.96828487e-04, 3.17786634e-03, 4.29779431e-03, 3.30627481e-05,
          2.51373276e-03, 4.09215782e-03, 2.65247282e-03,
          -2.36964459e-03, 2.29751831e-03, 2.85146874e-03,
          1.90077245e-03, 7.42825912e-04, -1.81677795e-04,
          1.35662884e-03, -1.44579273e-03, -4.65804432e-03,
          -7.75372330e-03, -8.40658104e-05, 3.38614656e-04,
          3.11008305e-03, 1.55246665e-03, 4.52855881e-03, 2.21726950e-03,
          3.50293308e-03, 6.43776904e-04, -4.54745954e-03,
          3.07491922e-04, 6.19814557e-04, 3.42441304e-03, 4.24514757e-03,
          4.26629791e-03, 2.15802179e-03, 2.48844066e-04,
          -2.00556498e-03, -7.59611512e-03, -2.03092373e-03,
          -3.04313056e-04, 5.40334499e-03, 4.85453941e-03,
          1.31744915e-03, 9.03874985e-04, 4.37864714e-04,
          -3.10659432e-03, -7.96215050e-03, -1.38827716e-03,
          -2.23166746e-04, 4.58733225e-03, 3.72727774e-03,
          1.46777020e-03, 6.63338811e-04, -1.28111965e-03,
          -3.87461344e-03, -8.49352032e-03, -4.13111458e-03,
          -6.69959292e-04, 4.26714402e-03, 5.25810895e-03,
          3.60300695e-03, 2.33781803e-03, 8.25974625e-04,
          -2.32892088e-03, -7.97972549e-03, -3.26253939e-03,
          -8.02652212e-04, 5.13713947e-03, 3.49479052e-03,
          3.78861208e-03, 1.76448061e-03, 5.21480921e-04,
          -1.92514923e-03, -5.54101635e-03, -9.02944652e-04,
          1.52659859e-03, 4.41811187e-03, 4.05779807e-03, 3.45244934e-03,
          2.35916115e-03, 1.64076991e-04, -2.76194606e-03,
          -8.81447084e-03, -5.05371811e-03, 5.09020756e-04,
          4.44553746e-03, 5.21635218e-03, 1.91050209e-03, 1.47121493e-03,
          2.23816081e-04, -2.95030465e-03, -8.67138337e-03,
          -3.31940874e-03, 6.62398466e-04, 4.46502026e-03,
          2.26461003e-03, -8.21341819e-04, -1.71640806e-03,
          -6.41842745e-03, -2.68436084e-03, 2.95067276e-03,
          -8.96797748e-04, -1.24454626e-03, -1.19255495e-03,
          -1.89224433e-04, -6.54041069e-04, -2.03056401e-03,
          -2.19880650e-03, 3.09531286e-04, 5.08799125e-03,
          -3.38756945e-05, -2.11025029e-03, -1.93998928e-03,
          -6.45713008e-05, 1.85167533e-03, -3.93670955e-04,
          -5.92803210e-03, 2.18484362e-04, 2.96480837e-03,
          3.05780006e-04, -1.10016542e-03, 1.15755196e-04,
          5.29901125e-04, 9.41777311e-04, -1.65737921e-03,
          -1.13618607e-03, 1.32364244e-03, 3.40475119e-03,
          1.94482866e-03, -5.71822806e-04, 3.97996424e-04,
          1.69124582e-03, -7.88224686e-04, -1.15959998e-03,
          3.13686789e-04, 2.38583167e-03, 3.78895015e-03, 7.16355135e-05,
          -4.89310548e-03, -2.32347008e-03, -8.83401663e-04,
          -1.04312680e-03, -7.33427121e-04, 1.30335521e-03,
          3.73646454e-03, 1.28663145e-03, 3.87844571e-04,
          -4.75155143e-03, -2.50639184e-03, -1.28031871e-03,
          -6.80079102e-04, -1.35355722e-03, -8.09486257e-04,
          -7.65229110e-04, 3.88510246e-03, 2.19123391e-03,
          -2.39083357e-03, -8.85342364e-04, -5.54719532e-04,
          -2.23018971e-04, 7.98004476e-05, -8.07040415e-05,
          2.15484435e-03, 2.72953068e-03, 4.71503846e-03,
          -5.16878767e-03, -1.90403324e-03, -8.91526288e-04,
          -9.71775909e-04, -6.87345222e-04, 1.81829662e-03,
          5.22426981e-03, 3.57553246e-03, 1.47956901e-03,
          -2.67551281e-03, -2.62144045e-03, -1.17683609e-03,
          -2.53187376e-03, -7.05018610e-05, 3.35607352e-03,
          5.21645276e-03, 1.11363835e-04, -7.54135312e-04,
          -5.07701933e-03, -5.69376256e-03, -4.95566288e-03,
          6.78873563e-04, 1.55599695e-03, 1.34967372e-03, 3.10917548e-03,
          2.91939708e-03, 3.71631770e-03, 1.11959991e-03,
          -1.91565356e-04, -6.96153671e-04, -3.45329667e-04,
          -2.79389551e-05, 1.40378659e-03, 1.84093742e-03,
          5.53523772e-04, 1.26673584e-03, -1.61306886e-03,
          -2.40529259e-03, -8.26671720e-04, 2.92548939e-04,
          1.13123818e-03, 2.76420708e-03, 4.18110518e-03, 2.56517436e-03,
          8.12323939e-04, -3.81264859e-03, -4.49934369e-03,
          -3.45765869e-03, -9.45601845e-04, 6.12637727e-04,
          1.84717681e-03, 5.74089726e-03, 3.48394504e-03, 1.06313708e-03,
          -2.00925209e-03, -2.46286183e-03, -3.00517771e-03,
          4.51994529e-05, -3.09980998e-04, 2.47400196e-04,
          1.62288453e-03, 8.62985908e-04, 8.98236351e-04,
          -1.14772120e-03, -1.94114051e-03, 3.66939406e-04,
          -2.56842122e-05, 1.60669399e-04, 1.53310620e-03,
          2.86282972e-03, 2.01572175e-03, 2.04751719e-04,
          -3.91842797e-03, -3.58906254e-04, 1.60657553e-04,
          -1.98564259e-03, -2.20466929e-04, 2.27571139e-03,
          4.54502134e-03, 4.09846846e-03, 1.05296355e-03,
          -1.28619780e-03, -1.74973265e-03, -2.65529286e-03,
          -9.45129199e-04, 2.75012129e-03, 3.09381145e-03,
          4.86528175e-03, 4.80103865e-03, 2.46447441e-03,
          -8.95998906e-04, 8.78188293e-05, -2.21204502e-03,
          2.74509104e-04, 8.40707740e-04, 2.09980179e-03, 4.59284009e-03,
          9.67934029e-04, -3.66976042e-03, -6.52745180e-03,
          1.14201321e-04, -4.49782267e-04, 1.83785183e-03,
          3.21871368e-03, 2.30524992e-03, 4.02463181e-03, 3.71632050e-03,
          2.67578522e-03, -2.80613615e-03, -8.47339281e-04,
          -6.04508619e-04, -1.57418265e-03, 3.97161441e-03,
          2.37860251e-03, 3.77547205e-03, 4.10706084e-03, 3.99951544e-03,
          -1.79854955e-03, 2.08208745e-04, -2.74462462e-03,
          -2.03500502e-03, 2.79049086e-03, 1.26355293e-03,
          3.57315084e-03, 4.98759607e-03, 3.95488646e-03,
          -2.63332692e-03, 5.85042697e-04, -2.31263926e-03,
          1.42623798e-03, 3.14155384e-03, 1.11453072e-03, 3.79960309e-03,
          4.55983076e-03, 1.75526354e-03, -7.94257689e-03,
          -2.69738841e-03, -1.21504825e-03, 2.00801456e-04,
          2.10914412e-03, 1.07548758e-03, 4.56921663e-03, 5.48929116e-03,
          4.32393653e-03, -8.25706776e-03, -3.91353574e-03,
          -1.43734366e-03, -2.41399556e-03, 3.04361270e-03,
          3.59602156e-03, 4.15203115e-03, 5.88314980e-03, 4.79271729e-03,
          -3.79174296e-03, -2.30667007e-04, -3.34468042e-03,
          -2.74025206e-03, 2.09068810e-03, 2.98273587e-03,
          5.65312617e-03, 6.89535774e-03, 5.35284029e-03,
          -4.99494281e-03, -2.50370684e-03, -3.58704105e-03,
          -5.28407109e-04, 1.55964494e-03, 1.73660868e-03,
          4.34091920e-03, 5.18644135e-03, 4.78356238e-03,
          -2.66590435e-03, -2.13971431e-03, -2.46859249e-03,
          -1.55466876e-03, 9.63848492e-04, 3.80433630e-03,
          5.84060233e-03, 4.54773800e-03, 3.81098106e-03,
          -5.73621318e-03, -2.50228541e-03, -3.85730295e-03,
          -1.83648884e-03, 1.39689317e-03, 1.93697598e-03,
          5.60988486e-03, 5.44389430e-03, 4.91927890e-03,
          -1.91396498e-03, -6.58869161e-04, -2.40668724e-03,
          -2.21073953e-03, 7.90308623e-05, 6.94535731e-04,
          -1.65115023e-04, 2.53982609e-03, 4.53585293e-03,
          -3.38490191e-03, -3.77735385e-04, -2.65137129e-03,
          -7.07811618e-04, 1.78081891e-03, 2.51162215e-03,
          3.87044740e-03, 3.17559950e-03, 3.73758166e-03,
          -6.65656757e-03, -1.67203532e-03, -2.01242394e-03,
          -4.39928874e-04, 1.24530809e-03, 1.58709497e-03,
          2.44998117e-03, 2.41747359e-03, 3.54486099e-03,
          -3.32883652e-03, -9.60855512e-04, -1.48887653e-03,
          -1.34456146e-03, -4.14231501e-04, 4.48629755e-04,
          -3.45145236e-04, 3.05622933e-03, 5.45796240e-03,
          -2.14750972e-03, 2.36993583e-04, -1.15032715e-03,
          -5.10321115e-04, 2.00600014e-04, 2.98204141e-05,
          1.98517708e-04, 1.95781677e-03, 4.12695576e-03, 2.17936904e-04,
          1.59498281e-03, -1.12308095e-04, -1.26805191e-03,
          1.35486000e-04, 1.88627653e-03, 2.67128577e-03, 3.02543887e-03,
          3.35767004e-03, -2.13155523e-03, -1.10845908e-03,
          -1.99102494e-03, -1.82429864e-03, -2.69362208e-04,
          1.07380001e-04, 1.88186381e-03, 2.16098339e-03, 2.91482033e-03,
          -3.18502658e-03, -8.65183480e-04, -5.34308550e-04,
          -1.04416616e-03, -2.67896859e-04, 8.08427867e-04,
          8.57699197e-04, 1.61945727e-03, 1.98252569e-03, 8.37333908e-04,
          1.71133503e-03, -1.33185124e-04, -2.86867726e-03,
          1.71296866e-04, 8.09581368e-04, 2.23573577e-03, 1.06584479e-03,
          1.19891614e-04, -4.50842083e-03, -3.65162879e-04,
          -3.16262664e-03, -3.24202841e-03, 8.77028069e-05,
          8.29270284e-05, 2.15181708e-03, 2.03567976e-03, 2.13985448e-03,
          -1.72819092e-03, -1.06921920e-03, -1.94010872e-03,
          -3.36326077e-03, 6.67170505e-04, 4.02617780e-03,
          3.73607432e-03, 2.80993222e-03, 2.19626632e-03,
          -7.97526911e-04, -1.49555050e-03, -3.19056166e-03,
          -1.89913565e-03, 3.21241701e-03, 2.03730981e-03,
          1.42230396e-03, -1.37615949e-03, -7.26719270e-04,
          1.87464978e-03, 2.27833167e-03, -2.42499076e-03,
          -7.58162874e-04, 3.80350417e-03, 4.64264816e-03,
          1.29472185e-03, -3.91584868e-03, -1.83550583e-03,
          8.91419069e-04, 2.43338640e-03, -1.36908900e-03,
          -2.06036330e-03, 2.38110381e-03, 3.24513274e-03,
          3.02828825e-03, 1.52145745e-03, 2.33730813e-03, 3.61234997e-03,
          -1.70825195e-04, -3.07281082e-03, -1.26384303e-03,
          2.05138791e-03, 4.49294224e-03, 2.29818886e-03,
          -2.96807755e-03, -1.90955680e-03, 2.45328411e-03,
          1.24791870e-03, -2.38880864e-03, 4.67167010e-05,
          3.70961777e-03, 4.39744629e-03, 1.55602349e-03,
          -2.49808980e-03, -7.08704698e-04, -9.59764002e-04,
          1.73226069e-03, -7.52019929e-04, -4.52210166e-04,
          1.28516031e-03, 3.75245325e-03, 3.03448876e-03,
          -7.35983660e-04, 2.50224047e-03, 2.75109871e-03,
          1.44342473e-03, -6.48911635e-04, -1.95619743e-03,
          2.29049780e-04, 2.76068691e-03, 1.30674860e-03,
          -4.29020217e-03, -1.48174737e-03, 6.63298939e-04,
          3.70020233e-03, -3.48758564e-04, -2.18589907e-03,
          2.41559334e-04, 7.10755121e-04, 1.62271899e-03,
          -1.88610237e-03, 1.13403588e-03, 3.07142013e-03,
          4.42159967e-03, -9.43095292e-05, 8.71042488e-04,
          1.39891775e-03, 3.21084331e-03, 3.72758531e-03, 1.79357259e-04,
          1.98245002e-03, 1.57543411e-03, 1.34478870e-03, 1.32075488e-03,
          7.12318288e-04, -4.55898436e-04, -9.15791315e-04,
          4.17101895e-04, -3.58225009e-03, -1.49351516e-04,
          8.19798734e-04, 3.73274065e-03, 3.85515811e-03,
          -8.72164790e-04, 6.17636950e-04, 4.02625650e-04,
          2.87725241e-03, -5.29394718e-04, 8.04689364e-04,
          2.91027478e-03, 4.42331284e-03, 1.25146785e-03,
          -8.73432320e-04, -1.44891290e-03, -1.13253330e-03,
          4.85337550e-05, -3.78708169e-03, -4.58575581e-04,
          1.31369021e-03, 1.80243456e-03, 5.26316580e-04, 1.33644335e-03,
          4.12016816e-04, -1.02344318e-03, -1.63513923e-03,
          -6.22596918e-03, -1.10147463e-03, 4.27353894e-04,
          4.50951280e-03, 5.23749972e-03, 3.11315292e-03, 8.25782074e-04,
          -4.74408851e-04, -2.55520083e-03, -8.78999196e-03,
          -2.78345263e-03, 1.82521704e-03, 5.02395164e-03,
          6.52741035e-03, 1.58943282e-03, -1.14664168e-03,
          -1.31898851e-03, -2.07575504e-03, -5.28628612e-03,
          -9.37937293e-04, 9.95919574e-04, 1.07779878e-03,
          2.12322338e-03, 5.33211976e-03, 1.69705343e-03,
          -8.15474777e-04, -1.43941166e-03, -8.69377051e-03,
          -1.94290699e-03, 9.91409761e-04, 1.91224355e-03,
          5.38133457e-03, 4.51259641e-03, 1.62360026e-03, 1.43979630e-03,
          -1.76152796e-03, -9.69374180e-03, -4.18280018e-03,
          2.41519767e-03, 5.31518320e-03, 5.09918202e-03, 2.40889937e-03,
          2.73407466e-04, 1.09776307e-03, -2.38909828e-03,
          -7.87811261e-03, -7.33149878e-04, 2.24113720e-03,
          4.10859287e-03, 3.45495553e-03, 5.03496639e-03, 2.30468111e-03,
          9.88337910e-04, -1.83316239e-03, -9.52787884e-03,
          -3.85615975e-03, 2.17551668e-03, 2.99667567e-03,
          5.87589387e-03, 1.79251540e-03, 1.73372671e-03, 1.69603973e-05,
          -2.77323439e-03, -7.98572600e-03, 9.66986350e-04,
          3.00213741e-03, 2.35334272e-03, 3.63740325e-03, 4.19998402e-03,
          7.68497179e-04, -4.34718328e-03, 5.11587132e-04,
          1.18192751e-03, -1.60788550e-04, -4.16779984e-03,
          -3.18696315e-04, 1.18457410e-03, 2.18751258e-03,
          3.64025123e-04, -2.64658476e-04, 2.88240961e-04,
          5.23794326e-04, 8.96853453e-04, -4.18519275e-03,
          -8.81398853e-04, 2.48907506e-03, 1.12957088e-03,
          2.71597761e-04, -4.32590023e-04, 1.37732551e-03,
          1.76154287e-03, 2.60983914e-04, -4.38898150e-03,
          -4.57245886e-04, 5.26094635e-04, 2.92267126e-04,
          -3.56299977e-04, -5.83626446e-04, -4.49584710e-04,
          2.17257329e-04, -1.73749775e-03, -3.09680309e-03,
          -1.77202339e-03, 6.77920005e-04, -2.06617624e-05,
          -4.81552066e-04, -6.45278487e-04, -1.05252827e-03,
          2.09869607e-03, 2.54541566e-03, -1.20484736e-03,
          -5.84609341e-04, -2.70277342e-05, 4.11877671e-04,
          1.53256129e-04, -2.82057299e-04, -2.83509580e-05,
          3.33637348e-03, 5.89476526e-03, 9.24600638e-04,
          -5.89065603e-04, -6.24525201e-05, -2.54939863e-04,
          -7.28921965e-04, -1.01754814e-03, -1.79359864e-03,
          -1.88864907e-03, 1.24701939e-03, -4.04658588e-03,
          -1.29312056e-03, -5.46144511e-05, -6.16572215e-04,
          -1.32947636e-03, -1.27102679e-03, -2.93720001e-03,
          -1.10690613e-04, 3.50420433e-03, 7.26086961e-04,
          9.23237589e-04, -2.91097094e-04, -4.23263526e-04,
          4.97888905e-05, 6.66717999e-04, 3.06894275e-04, 1.48365682e-03,
          3.80556704e-03, 2.52667442e-03, -1.50661246e-04,
          -1.22286659e-03, -2.02109129e-03, -2.67762062e-03,
          2.74862192e-04, -3.85095365e-04, -2.47330312e-03,
          -3.41817155e-04, 1.22091238e-04, 4.65794983e-05,
          1.58785013e-04, -8.88550072e-04, -1.85785280e-03,
          -9.73435061e-04, -8.69170064e-04, 2.92657613e-04,
          3.58187733e-03, 4.80554765e-03, 1.90611475e-03,
          -1.59565290e-03, -1.80471363e-03, -3.41692311e-03,
          -1.01212389e-03, -9.97237745e-04, -4.07648785e-03,
          -8.30043398e-04, 2.43187789e-03, 3.35260457e-03,
          1.99522648e-04, -1.36265636e-03, -2.04452849e-03,
          -7.75968947e-04, 2.15165928e-04, -3.08362389e-04,
          -1.36952009e-03, 1.87152042e-03, 2.23477371e-03,
          2.07265024e-03, -7.79552676e-04, -1.05511071e-03,
          4.90741339e-04, 8.30377336e-04, -1.12759916e-03,
          -3.03632091e-03, -1.48707721e-03, 1.71151641e-03,
          3.32639017e-03, -1.14054047e-03, -2.44199135e-03,
          -1.11833657e-03, -5.18386987e-05, -1.46225549e-03,
          -5.26809366e-04, 2.42098584e-03, 4.42891335e-03,
          2.30039400e-03, -1.13085972e-03, -2.47292290e-03,
          -8.56422586e-04, 1.59620692e-03, -1.62667385e-03,
          -8.22388916e-04, -1.07172504e-03, 3.80152557e-03,
          2.08350783e-03, 3.34413817e-05, 5.42606285e-04, 2.71377829e-03,
          2.45516165e-03, -6.04716362e-04, -4.00011102e-03,
          -3.15993163e-03, 6.80009834e-04, 1.58802327e-03,
          -5.88909141e-04, 8.01019778e-05, 1.01526326e-03,
          2.00395146e-03, 2.23822426e-03, 1.99665036e-03,
          -9.97135066e-04, 8.31937359e-04, -7.80594361e-04,
          -4.37240524e-04, -5.05493023e-04, 1.22977409e-03,
          2.25251634e-03, -2.39269738e-03, -2.17155460e-03,
          -3.10489279e-03, 3.07242107e-03, 1.34068471e-03,
          -5.71146491e-04, -5.82344597e-04, 4.44040576e-04,
          2.04667915e-03, 1.91305648e-03, 1.55429728e-03, 4.48500534e-04,
          1.53647992e-03, 1.25406135e-03, 3.56688747e-06, 7.08798907e-05,
          -3.98545468e-04, 2.73448275e-03, 3.93263390e-03,
          3.21966363e-03, -3.76836583e-03, -2.01432413e-04,
          4.57655697e-04, 9.94970906e-04, 1.65938749e-03, 1.88746187e-03,
          5.38392412e-03, 4.71441215e-03, 3.91233992e-03,
          -8.52081086e-03, -3.68081592e-03, -6.46215049e-04,
          1.36442803e-04, -8.50385928e-04, 5.11022343e-04,
          3.57613806e-03, 4.44552721e-03, 3.32863093e-03,
          -4.27623466e-03, 8.18333298e-04, 2.46115495e-03,
          2.54285871e-03, 3.60738573e-04, 5.47163305e-04, 2.09669350e-03,
          3.69426538e-03, 3.35319364e-03, -3.44606000e-03,
          -4.91297978e-04, 1.49468333e-03, 1.11143198e-03,
          2.63482332e-03, 5.24318172e-03, 6.75354432e-03, 4.89053782e-03,
          3.08786239e-03, -5.78134367e-03, -3.85806034e-03,
          -1.29116583e-03, 8.24761926e-04, 1.88821147e-03,
          4.43306519e-03, 5.46440296e-03, 2.98335194e-03, 3.02262069e-03,
          -3.69168958e-03, -1.87828788e-03, -1.00713805e-03,
          1.09712523e-03, 3.20554618e-03, 3.78175569e-03, 3.26253916e-03,
          1.84617180e-03, 2.07140995e-03, -4.92353830e-03,
          -2.30372604e-03, -1.55562616e-03, -7.26363738e-04,
          3.52343009e-03, 3.73783661e-03, 3.37422499e-03, 5.51151345e-04,
          4.55449655e-04, -9.76031180e-03, -4.06772923e-03,
          -9.76278796e-04, 1.67901069e-03, 3.70778120e-03,
          2.19706469e-03, 1.76453521e-03, -2.50492507e-04,
          2.49075168e-03, -3.31157679e-03, 2.14314699e-04,
          9.39018559e-04, 9.25308443e-04, 4.26581688e-03, 3.24696698e-03,
          2.46508350e-03, -1.19038697e-04, 9.50191752e-04,
          -5.38395951e-03, -1.24686072e-03, 3.77622491e-04,
          2.45517842e-03, 5.88676892e-03, 1.45807420e-03, 3.79182107e-04,
          -2.15523317e-03, -5.13987907e-04, -5.53516671e-03,
          -1.13489770e-03, 1.63175480e-03, 5.63887646e-03,
          7.66477874e-03, 4.58347471e-03, 3.43543390e-04,
          -3.09773139e-03, -1.65234588e-03, -4.65047220e-03,
          -1.26401731e-03, 7.48377875e-04, -7.76509871e-04,
          3.22239078e-03, 4.49285330e-03, 3.30817699e-03, 2.85810651e-03,
          1.19876291e-03, -2.59354059e-03, -1.57260685e-03,
          -2.32188124e-03, -5.14472602e-04, 2.50530522e-03,
          1.67507865e-03, 1.22076063e-03, -1.94163204e-06,
          7.07417377e-04, -1.97447790e-03, -1.70549392e-04,
          -1.62321492e-03, 4.85010305e-03, 6.90380717e-03,
          5.77184977e-03, 8.22340779e-04, -2.07975879e-03,
          -8.66316142e-04, -5.99938352e-03, -2.37376359e-03,
          -3.90255591e-04, 4.11368394e-03, 2.69425893e-03,
          1.58114999e-03, -1.51051069e-03, -3.33014620e-03,
          -3.50500166e-04, -4.62985970e-03, -1.17818872e-03,
          2.92359968e-03, -3.06495768e-03, 8.17763619e-04,
          1.29748660e-03, 8.34273698e-04, 9.98480711e-04, 8.88354043e-05,
          -3.32206418e-03, -1.90379727e-03, -3.95129621e-03,
          -3.19450861e-03, 2.21611676e-03, 4.76346724e-03,
          3.01046995e-03, 1.79185986e-03, 1.46433082e-03,
          -2.46444019e-03, -3.57580907e-03, -4.10392554e-03,
          2.87772389e-03, 3.86605156e-03, 3.78291123e-03,
          -4.12986061e-04, -1.57715625e-03, -9.39355930e-04,
          -2.21160823e-03, -3.01923807e-04, 1.52133661e-03,
          1.55719963e-03, 6.08785776e-03, 4.58314130e-03, 1.70806854e-03,
          1.21568031e-04, -7.04519858e-04, -5.08586597e-03,
          -1.79991568e-03, -3.57810408e-04, -2.31875409e-03,
          2.02440866e-03, 3.60428286e-03, 1.87425967e-03, 2.92000594e-04,
          1.95901073e-03, 2.18650233e-03, -1.93409901e-03,
          -3.60315759e-03, -2.10739672e-03, 8.28170974e-04,
          2.65169074e-03, 1.05325389e-03, -6.83849677e-03,
          1.79769908e-04, 4.61804634e-03, 7.38190021e-04,
          -3.79935396e-03, 1.27611670e-03, 3.31281358e-03,
          3.29734641e-03, 1.02959725e-03, -8.92930082e-04,
          1.46892318e-03, 1.15717016e-03, -8.58445594e-04,
          -1.80775730e-03, 1.32787600e-03, -8.30915058e-04,
          -7.81019044e-04, -2.01983820e-03, -3.54961166e-03,
          1.52234896e-03, 1.86279195e-03, 6.20166247e-04,
          -9.54622286e-04, -1.53046253e-03, -2.12603918e-04,
          1.81783561e-03, -7.69543840e-05, -6.16042316e-03,
          2.65741284e-04, 4.28846059e-03, 5.18106669e-03, 8.37021580e-05,
          -1.29258120e-03, 2.09495396e-04, 1.19177217e-03,
          -1.86634992e-04, -3.82400141e-03, 1.17043534e-03,
          5.69145801e-03, 5.80889732e-03, 1.47024333e-03, 2.66598072e-04,
          -5.28378354e-04, -1.31839639e-04, -1.62000000e-03,
          -5.44277020e-03, 1.14459649e-03, 3.42432316e-03,
          4.47989022e-03, -6.03359193e-04, -3.74663650e-04,
          6.26596784e-06, 8.32235906e-04, 5.79002954e-04,
          -3.17997113e-03, 1.61890499e-03, 5.28411753e-03,
          4.94874967e-03, -1.26955114e-04, 4.42785298e-04,
          2.65524053e-04, 6.61454629e-04, 1.50051014e-03,
          -2.90269521e-03, 8.04688083e-04, 4.30774409e-03,
          5.88871120e-03, 2.39967927e-03, 3.62992811e-04,
          -6.11222698e-04, -1.72074104e-03, -2.36535654e-03,
          -5.40234428e-03, -1.82154035e-04, 6.40593353e-04,
          1.53781346e-03, 2.03622272e-03, 1.17000251e-03, 1.30430926e-04,
          1.64633151e-03, 1.62542297e-03, -2.34294380e-03,
          1.26185641e-03, 4.87338286e-03, 4.71051224e-03, 1.83878269e-03,
          1.95933715e-03, -2.65412207e-04, -2.05366244e-03,
          -3.42221488e-03, -5.98649634e-03, -4.09922883e-04,
          1.74141966e-03, 2.99156783e-03, 1.96477119e-03, 2.95848842e-03,
          -1.52613188e-03, -2.94584595e-03, -1.86223886e-03,
          -4.78448300e-03, -2.03443560e-04, 6.25125656e-04,
          1.04826130e-03, 2.28698924e-03, 7.24580511e-03, 2.48648692e-03,
          -1.33235037e-04, -3.45620763e-04, -9.23601259e-03,
          -1.39178510e-03, 8.05637159e-04, 1.52851723e-03,
          3.32578970e-03, 4.83345427e-03, 2.69321841e-03, 8.93952616e-04,
          -1.75951608e-03, -4.63285157e-03, 2.66583782e-04,
          1.13824219e-03, 2.47668196e-03, 2.31246953e-03, 5.02737006e-03,
          7.57890427e-03, 3.79368220e-03, -5.90203272e-04,
          -8.83985031e-03, -7.97822257e-04, 6.52639719e-04,
          1.20746030e-03, 1.88156823e-03, 5.39107155e-03, 3.02239181e-03,
          8.21255904e-04, -2.09480594e-03, -1.04203941e-02,
          -1.78541255e-03, 1.03160739e-03, 1.88966433e-03,
          3.15239141e-03, 3.92831303e-03, 2.84833019e-03, 9.63445869e-04,
          -1.35053217e-03, -6.85391948e-03, 1.08542107e-03,
          2.37527676e-03, 2.01876042e-03, 3.19502573e-03, 3.61675746e-03,
          5.70909400e-03, 2.60359538e-03, -2.41230987e-03,
          -9.26935300e-03, -1.59281644e-03, 1.00532651e-03,
          1.65370130e-03, 1.21512741e-03, 3.49233882e-03, 5.91141451e-03,
          5.68135828e-03, 4.60204974e-05, -4.82168002e-03,
          1.72818231e-03, 2.94846599e-03, 2.72809947e-03, 2.38779723e-03,
          -8.17893539e-04, 2.32014107e-04, 7.03524682e-04,
          2.67985137e-03, 4.94755805e-03, 1.31155411e-03,
          -4.56570741e-03, -4.06740030e-04, -3.93799128e-04,
          -1.30603585e-04, -4.95210057e-04, 6.31921066e-05,
          1.15010270e-03, 3.26792197e-03, -5.62722213e-04,
          -1.91247580e-03, -1.54926593e-03, -1.65139209e-04,
          -6.60813530e-04, -2.87575938e-04, 8.52847472e-04,
          2.44049239e-03, 3.92700732e-03, -5.95836318e-04,
          -2.70348275e-03, -9.30940325e-04, -1.32003368e-03,
          4.42355173e-04, -7.74085231e-04, -9.71279223e-04,
          4.83042852e-04, 3.19029181e-03, -1.48658024e-03,
          -7.09839026e-03, -3.00799054e-03, -3.53850264e-05,
          -7.85649390e-05, -7.30555505e-04, -6.42472820e-04,
          -7.32499175e-05, -7.68123602e-04, -4.91571147e-04,
          -5.29858924e-04, -2.60603731e-04, 1.48415420e-04,
          -1.05445732e-04, -8.79948377e-04, -2.02174080e-04,
          -8.63922585e-04, 8.76568141e-04, 3.00012203e-03,
          1.88885501e-03, 2.10695015e-03, 1.06662023e-03,
          -9.26538021e-04, -4.99738264e-04, -9.38540616e-04,
          -7.37959999e-05, 5.58061234e-04, -2.14340026e-03,
          -5.68415597e-03, -2.06344225e-03, -1.26635167e-03,
          -1.79226685e-03, -1.28982647e-03, -7.15172850e-04,
          5.82154724e-04, 1.09166931e-03, 2.18246877e-03, 5.50198485e-04,
          -2.62194546e-04, 2.96263548e-04, -1.06068641e-04,
          -1.49419787e-03, -7.12580862e-04, -9.39098361e-04,
          -1.25977059e-03, 2.14400375e-03, 5.34127280e-03,
          3.82560398e-03, 8.06273951e-04, -6.33479271e-04,
          -1.78854296e-03, -1.28185505e-03, -1.25454459e-03,
          -4.44645062e-03, -3.81095707e-03, 3.99583485e-03,
          5.43266488e-03, 2.02514767e-03, -2.36960477e-03,
          -2.58682575e-03, -1.11356936e-03, -9.52908129e-04,
          -1.35502184e-03, 1.02957757e-03, 2.86470260e-03,
          2.16803467e-03, 4.68070008e-04, -3.08699720e-03,
          -3.76771879e-03, -2.41166586e-03, -2.69900798e-03,
          -6.85468921e-03, -4.79764258e-03, 3.50472704e-03,
          4.91529377e-03, 1.03347783e-03, -7.51601474e-04,
          -1.42575882e-03, -1.64891884e-03, -9.45387408e-04,
          -3.00350389e-03, -1.05721166e-03, 2.67288042e-03,
          3.47805838e-03, 1.88007427e-03, -7.80163275e-04,
          -1.95688615e-03, -1.20505842e-03, -6.31808070e-04,
          -2.56912829e-03, -3.93228220e-05, -1.59220363e-04,
          2.04160344e-03, 1.58719125e-03, 4.00164339e-04,
          -2.57413345e-03, -3.54837487e-03, -2.09414284e-03,
          -5.21341758e-03, -1.83579896e-03, 2.95400037e-03,
          6.46922924e-03, 4.96183382e-03, 1.74869236e-03,
          -2.39859847e-03, -2.44943611e-03, -2.02735723e-03,
          -5.70065202e-03, -1.56527443e-03, 2.20532715e-03,
          5.51043358e-03, 5.23530552e-03, -8.96601763e-04,
          -1.41376443e-03, -7.45465572e-04, -1.67263701e-04,
          -3.22879688e-03, -2.13731430e-03, -1.61301473e-03,
          3.17292614e-03, 8.23025941e-04, -1.92758816e-04,
          -3.42469459e-04, -8.86271242e-04, 9.06402187e-04,
          3.84103449e-04, 4.68920538e-04, 1.43210450e-03, 5.11100795e-03,
          2.76343408e-03, 1.53059512e-03, -1.53235008e-03,
          -1.11262035e-03, -1.71139045e-03, -5.76694449e-03,
          -3.46839451e-03, 2.70651828e-04, 2.39990209e-03,
          3.31287645e-03, 2.20631668e-03, 1.42180547e-03, 5.27493481e-04,
          -8.06473196e-04, -2.71765771e-03, -2.22607609e-03,
          9.82721336e-04, 5.42481756e-03, 5.36962505e-03, 1.32219342e-04,
          -9.17761470e-04, -3.39438011e-05, 5.85097354e-04,
          1.31392234e-03, 4.46554070e-04, -4.89635346e-03,
          4.93778149e-04, 2.84056761e-03, 1.64434512e-03, 8.45108225e-05,
          4.67559206e-04, -9.12544201e-04, -2.45823903e-04,
          -3.30570329e-04, -5.58890868e-03, -6.07514114e-04,
          4.14855313e-04, 2.74304021e-03, 2.71320110e-03, 1.42606243e-03,
          1.09191722e-04, -8.16286018e-04, -8.17290740e-04,
          -4.34763264e-03, 2.96521513e-03, 3.95026803e-03,
          4.29790188e-03, 2.79229018e-03, 1.63438870e-03,
          -8.44453636e-04, -2.77246907e-03, -2.65385862e-03,
          -5.92246931e-03, 5.11377992e-04, 1.07843010e-03,
          1.38295256e-03, 3.17484746e-03, 1.73895492e-03, 1.21611205e-03,
          3.52418429e-04, 9.04181390e-04, -2.87065888e-03,
          -3.46700748e-04, 7.14250433e-04, 2.82733497e-04,
          2.33009644e-03, 1.45641016e-03, 7.90019287e-04,
          -9.37516044e-04, -7.77738227e-04, -7.61141768e-03,
          -3.34148877e-03, -1.23193534e-03, 4.95131221e-03,
          6.33632578e-03, 3.96855734e-03, 1.95689127e-03,
          -9.51646594e-04, 5.85250673e-04, -4.67644306e-03,
          -5.06203796e-04, 1.44991779e-03, 3.77572887e-03,
          3.96060245e-03, 1.80209102e-03, 2.29180500e-06,
          -1.79714954e-03, -4.85626195e-04, -5.19257458e-03,
          -3.56413773e-03, -7.84476404e-04, 2.59768520e-03,
          4.98230522e-03, 1.09625771e-03, -1.17342034e-03,
          -3.50605650e-03, -1.26673619e-03, -6.09865831e-03,
          -1.80385669e-03, -5.86466515e-04, 4.75935498e-03,
          6.98636705e-03, 2.96673225e-03, -7.17514602e-04,
          -2.26054620e-03, -8.12784070e-04, -2.13894132e-03,
          -4.96890920e-04, -1.51953264e-03, 3.19373910e-03,
          5.20233763e-03, 1.12187921e-03, -1.78516470e-03,
          -1.76815875e-03, -7.34014902e-04, -2.44107051e-03,
          -2.18588277e-03, -9.85627179e-04, 1.49342336e-03,
          6.48470828e-03, 1.12202892e-03, -1.40604121e-03,
          -1.29162124e-03, -4.18626500e-04, -2.87510757e-03,
          -9.38178273e-04, -2.41001719e-03, 4.04613838e-03,
          5.76530583e-03, 2.76848301e-03, -7.88733829e-04,
          -2.09662318e-03, -3.94810166e-04, -2.88856740e-04,
          -2.49677396e-04, -6.06848742e-04, 3.85438371e-03,
          3.48402071e-03, 1.85338431e-03, -1.65916921e-03,
          -2.73895334e-03, 3.96563119e-04, -2.93594133e-03,
          -9.42167360e-04, 1.68792100e-03, 1.15813664e-05,
          2.44981633e-03, 3.54015792e-04, -1.25875883e-03,
          -1.30402134e-03, 4.09023633e-04, -1.81025171e-04,
          2.36513384e-04, -2.64027226e-03, -4.49614512e-04,
          9.43405976e-05, 1.35264685e-03, -6.57674915e-04,
          -7.82947754e-04, 1.67877472e-03, -1.68656104e-03,
          1.99984672e-04, -2.04814412e-03, 2.95275007e-03,
          4.54883929e-03, 2.37821881e-03, 2.35946281e-04,
          -1.94626395e-03, -1.32872286e-04, -1.45684998e-03,
          2.25932759e-04, 4.99066955e-04, 2.78233807e-03, 6.54569874e-03,
          3.73694301e-03, 6.08836359e-04, -2.80359527e-03,
          -1.24640495e-03, -2.04219692e-03, 8.50818935e-04,
          3.52029456e-04, -4.37458337e-04, 2.54594581e-03,
          2.08509131e-03, 1.54064881e-04, -9.36207944e-04,
          8.95020785e-04, -6.42384170e-04, 8.08290555e-04,
          -1.53373997e-03, 3.40476196e-04, 4.40496905e-03,
          2.19201995e-03, 3.33573524e-04, -8.49410146e-03,
          9.40634563e-05, -1.88252679e-03, 2.27481849e-03,
          -4.85065684e-04, 3.41728562e-03, 4.72202990e-03,
          1.46020600e-03, -1.89379789e-04, -2.69293226e-03,
          7.02654826e-04, 1.05847628e-03, 1.07645674e-03,
          -1.35922573e-05, 1.82106881e-03, 1.90193555e-03,
          6.01047999e-04, -2.22302950e-03, -4.33779648e-03,
          -4.44222351e-05, 2.19696388e-03, 6.68016728e-04,
          -5.98853105e-04, 2.21449416e-03, 5.21332864e-03,
          9.24824213e-04, -1.16701226e-03, -3.59401410e-03,
          2.83692731e-04, 2.73295306e-03, 2.73709674e-03, 4.64544079e-04,
          2.06821924e-03, 3.81827145e-03, 1.16709538e-03,
          -3.32670379e-03, -5.68164978e-03, -2.89353309e-03,
          2.68054684e-03, 2.50204862e-03, -9.19698432e-05,
          -7.88599369e-04, 7.78794754e-04, 1.85484136e-03,
          7.69103761e-04, -3.80180893e-03, 1.16317882e-03,
          2.12981692e-03, 3.03564733e-03, -1.42069545e-03,
          1.59840001e-05, 7.48811581e-05, 2.91217025e-03, 1.94271817e-03,
          -2.87401327e-03, 1.43952912e-03, 3.43252649e-03,
          3.29232798e-03, 1.32193454e-04, 4.96416702e-04, 4.69549326e-03,
          4.09188727e-03, 8.98849161e-04, -3.86015326e-03,
          8.12058919e-04, 3.27806431e-03, 3.26479622e-03,
          -4.99174697e-04, 6.85771665e-05, 2.72859912e-03,
          2.64213793e-03, 1.37889525e-03, -3.07262829e-03,
          2.00087018e-03, 4.09007678e-03, 4.93034534e-03, 3.53714044e-04,
          4.00323770e-05, -2.52664136e-03, 2.16587749e-03,
          2.05898099e-03, -2.23930366e-03, 7.60785013e-04,
          2.52693635e-03, 2.81757815e-03, 4.01965430e-04, 2.94967857e-03,
          6.50918717e-03, 1.28978561e-03, -4.43172699e-04,
          -2.22754828e-03, 8.51512887e-04, 1.03715400e-03,
          2.76576681e-03, 2.04462835e-04, 1.38999778e-04, 3.87083576e-03,
          4.14910773e-03, 1.72071299e-03, -2.53037037e-03,
          5.00292750e-04, 1.46072090e-03, 3.20760207e-03,
          -2.12149840e-04, 1.77803193e-03, 6.43781479e-03,
          4.96077677e-03, 2.35764356e-03, -1.73762091e-03,
          3.29495815e-04, -1.15263014e-04, 1.95340323e-03,
          6.78126991e-04, 2.49151187e-03, 5.84256509e-03, 2.71822466e-03,
          5.95229387e-04, -2.33229226e-03, 3.10946081e-04,
          4.36408707e-04, 1.20578113e-03, -9.63609491e-04,
          2.55489047e-03, 6.54464262e-03, 5.36149275e-03,
          -8.80290754e-04, -7.23556662e-03, -1.08758523e-03,
          4.99707239e-04, 7.51915446e-04, -3.99832294e-04,
          8.47892006e-05, 5.18556079e-03, 5.65340510e-03, 3.18231853e-03,
          -1.11497892e-03, 2.91864591e-04, 6.08010043e-04,
          1.04224682e-03, -7.37807422e-04, 9.10628471e-04,
          6.72965823e-03, 6.35447307e-03, -2.97306869e-05,
          -5.36134047e-03, -1.32042030e-03, 9.52144270e-04,
          5.10842190e-04, -8.71551514e-04, 1.79132563e-03,
          5.00696106e-03, 3.66949453e-03, -2.61514727e-03,
          -6.25381758e-03, -2.15078774e-03, 5.25242533e-04,
          7.32294924e-04, -1.74978690e-04, 8.38418666e-04,
          4.07601893e-03, 5.69970673e-03, 2.06154189e-03,
          -4.19318723e-03, 9.00582760e-04, 2.26511923e-03,
          2.68781860e-03, -1.65286008e-04, -3.72255978e-04,
          4.66385437e-03, 5.19928662e-03, -1.80107469e-04,
          -2.87039648e-03, -2.24756403e-03, 1.10898598e-03,
          7.23663077e-04, -7.55321758e-04, -1.75584550e-03,
          4.51254891e-03, 6.00615703e-03, 3.32401693e-03,
          -9.26929817e-04, 1.88719970e-03, 1.77216285e-03,
          1.49772351e-03, -1.12488633e-03, -3.55849537e-04,
          -1.96898053e-03, -6.62982638e-04, 2.86179269e-03,
          5.14915958e-03, -4.76003537e-04, -2.64054420e-03,
          -8.16754706e-04, -6.35970617e-04, 9.92385787e-04,
          -2.26337742e-03, -2.29428546e-03, 9.98779433e-04,
          2.66271946e-03, -1.23835902e-03, -4.46078787e-03,
          -8.47383868e-04, 1.16638606e-03, 5.67778116e-05,
          -2.28971289e-03, -2.39182753e-03, 1.80230429e-03,
          4.67775995e-03, 5.55153121e-04, -2.63222517e-03,
          3.33984586e-04, 8.22941820e-06, 3.18836072e-04,
          -2.22808076e-03, -2.50884262e-03, 1.79469911e-03,
          4.46591526e-03, -7.46657606e-04, -4.95316414e-03,
          -4.86246572e-04, 2.07602585e-04, 1.44118443e-03,
          -4.72111802e-04, -1.46144105e-03, 1.09903580e-04,
          2.81056622e-03, -1.55898824e-03, -4.46104957e-03,
          -7.59352522e-04, 9.86518688e-04, -1.73135079e-03,
          -1.27806282e-03, -1.16063049e-03, 3.12186254e-04,
          3.88686964e-03, 2.70951330e-03, 3.36641369e-06, 1.14596728e-03,
          1.37041294e-04, 1.60821772e-04, -1.92736066e-03,
          -2.02462403e-03, 8.34799503e-05, 4.60626138e-03,
          -1.18433277e-03, -4.91043320e-03, -8.50465207e-04,
          7.70922401e-04, -1.67394476e-03, -2.79438240e-03,
          -2.46381573e-03, -3.32012685e-04, 3.28902807e-03,
          -5.00934024e-04, -4.76015313e-03, -1.38695992e-03,
          2.82078487e-04, -2.29708548e-03, -2.88149668e-03,
          -1.97526743e-03, -3.84085608e-04, 1.49651000e-03,
          1.11024431e-03, 3.24373413e-03, 5.11196395e-03, 2.69097812e-03,
          -1.39150489e-03, -3.11504421e-03, -2.58398545e-03,
          -3.16264341e-03, -6.67214300e-03, -3.20209074e-03,
          4.64710500e-03, 8.59836768e-03, 4.92400350e-03,
          -1.73848670e-03, -3.08524910e-03, -2.14939914e-03,
          -1.62334240e-03, 1.17211974e-04, -8.77779094e-04,
          -1.36226101e-03, -4.44651640e-04, -1.06982142e-03,
          -1.86250545e-03, -2.77905259e-03, -2.06899131e-03,
          -4.93391557e-03, -6.61898451e-03, -3.84961092e-03,
          7.95395827e-05, 2.91196187e-03, -1.68415965e-04,
          8.16001673e-04, -2.01047631e-03, -3.57320462e-03,
          -2.36589578e-03, -5.61694428e-03, -2.74461904e-03,
          1.90646073e-03, 7.27043208e-03, 5.72463498e-03, 2.70399684e-03,
          -2.40173540e-03, -3.90049582e-03, -2.91228946e-03,
          -6.26686681e-03, -5.23685571e-03, 1.85213040e-03,
          8.56893416e-03, 7.29099195e-03, -1.97641668e-03,
          -2.41173501e-03, -2.76903925e-03, -3.48999212e-03,
          -5.47952484e-03, -3.63314315e-03, -1.24973012e-03,
          2.17603636e-03, 1.54945895e-03, 8.69991665e-04,
          -2.94539914e-03, -3.37874098e-03, -2.98750331e-03,
          -5.87879075e-03, -6.09470438e-03, -1.97895477e-03,
          1.92658277e-03, 5.09650866e-03, 3.75438971e-03,
          -1.17851933e-03, -1.74029614e-03, -2.40106578e-03,
          -5.98594407e-03, -4.94504999e-03, 6.79175835e-04,
          3.59103922e-03, 6.64985878e-03, 6.81836763e-03, 2.53251032e-03,
          3.68044915e-04, -7.81084644e-04, -3.05032055e-03,
          -3.25246598e-03, -6.12733071e-04, 2.27188575e-03,
          7.07128039e-03, 3.30354762e-03, -2.50603049e-03,
          -2.17014016e-03, -2.93641840e-03, -6.92671351e-03,
          -6.06260961e-03, -1.76648318e-03, -2.75675557e-04,
          4.25902009e-03, 9.57616314e-04, -2.09309603e-03,
          -2.68300320e-03, -2.78450618e-03, -3.35407001e-03,
          -3.63454339e-03, -1.01824710e-03, -1.06193183e-03,
          2.97512440e-03, 5.96009754e-03, 5.15205180e-03, 1.04441796e-03,
          3.76201468e-04, -7.80539471e-04, -1.03174290e-03,
          -4.23669768e-03, 4.61184100e-04, 5.74820302e-03,
          6.35258760e-03, 6.56154798e-03, 1.39594229e-03, 1.09078988e-04,
          -1.69445632e-03, -1.06723700e-03, -4.78139007e-03,
          -9.06632573e-04, 2.11101328e-03, -2.86031747e-04,
          -2.73268297e-03, -3.49778426e-03, -1.81791151e-03,
          -3.30610573e-03, -1.87504615e-04, -3.26368865e-03,
          -2.01343116e-03, -1.94467633e-04, -1.22731423e-03,
          -1.79205590e-03, -3.54341604e-03, -1.22874137e-03,
          1.34103966e-03, 3.90214176e-04, -5.63929835e-03,
          -3.66432266e-03, -2.89325276e-03, 6.83155563e-03,
          6.94943592e-03, 2.58852425e-03, 2.11568945e-03, 1.79467432e-04,
          1.00786553e-03, -2.85809254e-03, -8.98777973e-04,
          1.70846097e-03, 6.11869432e-03, 2.38723494e-03, 5.37187152e-04,
          -3.95379437e-04, -2.25520111e-03, 1.83973534e-04,
          -3.69815412e-03, -2.22508539e-03, 7.38633273e-04,
          9.23918502e-04, -3.97565076e-04, -2.78279930e-03,
          1.11612387e-03, 9.65633430e-04, 2.86167488e-04,
          -5.17472904e-03, -2.76532676e-03, -2.73952261e-03,
          -6.14985067e-04, -3.28318309e-03, -4.58914088e-03,
          -5.49578399e-04, -2.34683044e-03, -1.98476459e-03,
          -4.30315919e-03, -2.62996042e-03, -1.39262620e-03,
          5.79997571e-03, 4.84423619e-03, 1.95556460e-03,
          -1.87583349e-03, -2.00550258e-03, -2.16208328e-03,
          -1.36904209e-03, -1.36820518e-03, 1.03056058e-03,
          2.73195165e-03, 7.16919731e-03, 7.34389352e-04,
          -9.38944577e-04, -1.58620474e-04, -1.89109211e-04,
          -1.58707134e-03, -3.18062841e-04, -8.35644954e-04,
          5.76743449e-04, -2.07429123e-03, -2.10528332e-03,
          -1.88870681e-03, -1.61050539e-03, -3.32306558e-03,
          -2.79528555e-03, -1.51124911e-03, 1.00145198e-03,
          -6.22470616e-05, 1.07330817e-03, -5.16535423e-04,
          -1.42006075e-03, -3.30985617e-03, -3.61964689e-03,
          -4.34233807e-03, -1.25015830e-03, 3.10067699e-04,
          1.20742817e-03, 3.22808092e-03, 8.69168027e-04,
          -1.25894079e-03, -1.15164602e-03, 4.13893198e-04,
          3.30631388e-03, 9.71408153e-04, -5.14425221e-04,
          -1.48420385e-03, -1.34698828e-04, 8.97695310e-04,
          -1.37468160e-03, -9.55997326e-04, 2.53258785e-03,
          4.78644622e-03, 4.28456021e-03, -2.54168850e-03,
          -1.51157030e-04, 1.25197670e-03, -5.13538776e-04,
          -1.82901288e-03, -2.83909100e-03, -3.99790565e-03,
          -4.30182787e-03, -2.15986138e-03, -1.02010861e-04,
          -2.43505882e-03, -5.49147007e-05, -1.00140844e-03,
          -1.20281882e-03, -2.83087837e-03, -2.62120133e-03,
          -1.92838185e-03, -2.11736234e-03, -4.47619986e-03,
          -1.99149130e-03, 1.49817544e-03, 2.08355393e-03,
          -3.00448475e-04, 8.94743775e-04, 7.04265258e-04,
          3.67368665e-03, 2.66683451e-03, -3.82164633e-03,
          -1.63923332e-03, 1.15374487e-03, 1.62113481e-03,
          -5.90009076e-05, -1.13897340e-03, 1.31125969e-03,
          4.92733158e-03, 3.43297585e-03, -2.00485694e-03,
          -4.51039243e-03, -4.08445543e-04, 6.32538227e-04,
          1.94647597e-04, -3.01449734e-04, 3.01536726e-04,
          -2.63291318e-03, -2.31419085e-03, -5.68179786e-03,
          -4.82272962e-03, -1.45775359e-03, 7.65808567e-04,
          -8.11888895e-05, 1.09465315e-03, 4.42223530e-03,
          7.11039547e-03, 1.59639784e-03, -4.74602124e-03,
          -3.68570240e-04, 1.40996510e-03, 6.00655039e-04,
          -5.66983712e-04, -3.73354182e-03, -1.19805022e-03,
          4.65663522e-03, 4.18255338e-03, 1.43703452e-04, 7.58573005e-04,
          1.66269508e-03, 1.39153202e-03, -1.98229891e-03,
          -4.21397900e-03, -2.90587754e-03, 3.64990463e-03,
          3.56158428e-03, 5.64984104e-04, -9.37477627e-04,
          -8.80000531e-04, -9.54161282e-04, -1.58340286e-03,
          -4.89912182e-03, -2.33284547e-04, 6.09007804e-03,
          2.81218486e-03, -2.46654567e-03, 1.92572235e-03,
          3.99253564e-04, 7.64451906e-05, -2.50700884e-03,
          -5.08988462e-03, -3.38509004e-03, 5.63679449e-03,
          2.31429981e-03, 1.32161914e-03, -1.15374313e-03,
          1.86249206e-03, 2.08054110e-03, -2.01845236e-04,
          -5.67946350e-03, 2.00820170e-04, 2.84541282e-03,
          2.44571664e-03, -1.05399464e-03, -6.27218571e-04,
          2.57925503e-03, 2.37723766e-03, 2.07016477e-03,
          -7.34418863e-05, 3.80587322e-03, 3.50127020e-03,
          3.99572775e-03, -4.19269752e-04, -6.73852686e-04,
          1.35801348e-03, 1.16636604e-03, -6.61353057e-04,
          -7.18096411e-03, 1.31280418e-03, 2.36154976e-03,
          1.49254373e-03, -2.13053916e-03, -6.73162343e-04,
          3.54026840e-03, 3.60137923e-03, 3.03031364e-03, 4.16063797e-03,
          6.78091636e-03, 5.65106701e-03, 4.00900654e-03,
          -1.39500364e-03, -2.53079133e-03, 2.78259302e-03,
          3.48205538e-03, 2.52511445e-03, -1.32985623e-03,
          2.44787289e-03, -1.86962046e-04, 2.41436902e-03,
          -2.32308707e-03, -2.34365300e-03, 5.02644200e-03,
          4.92710061e-03, 2.61622923e-03, -2.66194041e-03,
          3.11464391e-04, -3.65920085e-03, 4.70176165e-04,
          -1.60860037e-03, -9.65930813e-04, 3.90190701e-03,
          4.06630244e-03, 3.28625389e-03, 2.57350504e-03, 6.30579563e-03,
          3.03140539e-03, 3.76772252e-03, -4.58213559e-04,
          7.83702184e-04, 4.83867200e-03, 4.53682570e-03, 2.72329827e-03,
          -2.54380563e-03, 1.51945185e-03, 1.12243381e-03,
          2.82813562e-03, 1.07905210e-03, 7.80219387e-04, 4.77020768e-03,
          5.58744743e-03, 3.50030488e-03, -2.47245701e-03,
          2.46464246e-04, 4.91077735e-05, 6.90519984e-04, 5.07889708e-05,
          6.44935411e-04, 5.87410480e-03, 4.91749169e-03, 1.61128654e-03,
          -5.09468606e-03, -8.40721535e-04, 5.76311490e-04,
          6.87530090e-04, -1.53433345e-03, 2.79310183e-03,
          5.58303110e-03, 3.44122015e-03, 2.52102781e-03,
          -2.71441275e-03, -3.99490847e-04, 1.58079586e-03,
          1.60186924e-03, 1.12940313e-03, 1.85732706e-03, 4.76367306e-03,
          3.09324428e-03, 1.75105582e-03, -6.30343286e-03,
          -2.31177523e-03, 6.72687602e-04, 7.77276524e-04,
          -3.86507367e-04, -1.36644230e-03, 3.89541266e-03,
          2.06609443e-03, 7.57825619e-04, -3.81802605e-03,
          -1.87652546e-03, 7.47477985e-04, 2.59340770e-04,
          -2.58858362e-03, -2.23607407e-03, 3.83771467e-03,
          5.60402917e-03, 3.86751932e-03, 1.57708919e-03, 1.86647673e-03,
          9.91079607e-04, 2.64714647e-04, -2.97359540e-03,
          -6.49113848e-04, 3.39504657e-03, 1.44632731e-03,
          2.12272629e-03, -5.21131558e-03, -2.86665699e-03,
          7.82532035e-04, 3.76762706e-04, -2.90363678e-03,
          -2.89573311e-03, 3.01972753e-03, 5.50413504e-03,
          5.65435039e-03, 3.40881944e-03, 1.85593264e-03, 1.24038418e-03,
          5.80462511e-04, -2.98937503e-03 ]
   uncompressed_sv_total: 8
   uncompressed_support_vectors:
      - [ 1.67935863e-02, 1.08356914e-02, 3.72420512e-02, 3.11271548e-01,
          3.35946888e-01, 1.78662747e-01, 9.11001414e-02, 3.93815152e-02,
          2.62143090e-02, 2.17781425e-01, 5.05636223e-02, 2.95785125e-02,
          2.16695979e-01, 3.35946888e-01, 1.00298375e-01, 4.51367088e-02,
          5.27471900e-02, 9.43153948e-02, 4.52703498e-02, 3.32986936e-02,
          3.94866467e-02, 1.54381946e-01, 3.35946888e-01, 2.39694580e-01,
          4.37549688e-02, 2.65247226e-02, 2.07692273e-02, 3.35946888e-01,
          1.41630158e-01, 5.69685847e-02, 9.04701427e-02, 3.35946888e-01,
          1.61720455e-01, 3.03563550e-02, 3.41517329e-02, 1.44328758e-01,
          2.00305909e-01, 6.89378381e-02, 4.25002277e-02, 1.36780471e-01,
          2.55055010e-01, 1.13780856e-01, 1.30323842e-02, 1.54558644e-02,
          5.66305295e-02, 4.33373637e-02, 3.77694517e-02, 3.85809354e-02,
          2.29601696e-01, 3.47222865e-01, 2.51513183e-01, 1.24975014e-02,
          1.06017932e-03, 9.09452885e-03, 2.96138674e-01, 1.16816200e-01,
          3.79754901e-02, 1.72396690e-01, 3.27365279e-01, 7.15544745e-02,
          4.16094698e-02, 2.81902663e-02, 1.53178826e-01, 1.84534565e-01,
          1.43811703e-01, 3.48948501e-02, 3.30601186e-01, 3.47222865e-01,
          1.98818922e-01, 6.53997809e-02, 3.75026502e-02, 7.83745795e-02,
          9.49233212e-03, 2.31606700e-02, 3.42009105e-02, 1.12813726e-01,
          3.26552838e-01, 1.45889103e-01, 8.89163651e-03, 1.09496107e-03,
          4.10723081e-03, 5.47433598e-03, 1.61354803e-02, 2.58510448e-02,
          1.66188926e-01, 3.26552838e-01, 2.31161773e-01, 6.36315625e-03,
          1.25915115e-03, 2.41672993e-03, 2.70359337e-01, 1.82149962e-01,
          1.54831754e-02, 1.28242671e-01, 3.26552838e-01, 1.31923646e-01,
          3.19750980e-02, 3.04969493e-02, 1.15240484e-01, 3.26552838e-01,
          2.02846333e-01, 4.17415947e-02, 1.31267771e-01, 3.26552838e-01,
          1.97631866e-01, 4.35207272e-03, 8.37901607e-02, 2.89438576e-01,
          6.34524552e-03, 6.51975255e-03, 7.79556623e-03, 2.27130249e-01,
          3.35607499e-01, 1.62796870e-01, 3.36487661e-03, 5.61957154e-03,
          3.40093859e-03, 1.66073479e-02, 1.20750051e-02, 1.77560113e-02,
          1.27960250e-01, 2.44608983e-01, 6.14220016e-02, 8.80873390e-03,
          1.30173778e-02, 1.30293611e-02, 3.35607499e-01, 2.51433343e-01,
          6.24329187e-02, 1.34821042e-01, 3.35607499e-01, 1.93504199e-01,
          5.88523876e-03, 6.80095032e-02, 2.48933196e-01, 3.35607499e-01,
          1.65599316e-01, 3.53443213e-02, 6.85582832e-02, 1.90787911e-01,
          6.60100803e-02, 1.39503283e-02, 1.01846926e-01, 3.35607499e-01,
          7.69586535e-03, 5.96122211e-03, 2.18718741e-02, 1.17127605e-01,
          3.32546562e-01, 4.13541943e-02, 1.22794425e-02, 8.60507041e-03,
          1.09635210e-02, 8.04186054e-03, 9.45691485e-03, 3.25135440e-02,
          1.80219069e-01, 3.32546562e-01, 4.43529636e-02, 9.41907614e-03,
          1.94162074e-02, 1.30237341e-02, 3.32546562e-01, 6.89679533e-02,
          4.43491787e-02, 9.20489430e-02, 2.61121333e-01, 4.83623296e-02,
          3.65018398e-02, 1.26010373e-01, 3.32546562e-01, 2.41282985e-01,
          6.11236207e-02, 7.29250684e-02, 1.45204499e-01, 3.32546562e-01,
          1.22190312e-01, 1.69063151e-01, 2.13809818e-01, 3.32546562e-01,
          2.17861347e-02, 1.98802426e-02, 2.57220566e-02, 1.08461343e-01,
          3.93982172e-01, 6.30232766e-02, 2.62561440e-02, 3.09633389e-02,
          3.46531048e-02, 1.39250159e-02, 9.56797507e-03, 1.24146938e-02,
          1.70694679e-01, 4.01396513e-01, 2.73787647e-01, 4.34715934e-02,
          3.56116481e-02, 3.31416912e-02, 9.08693448e-02, 3.08472924e-02,
          4.42142598e-02, 9.26925838e-02, 3.22938293e-01, 1.26148656e-01,
          1.84253767e-01, 1.61670759e-01, 1.97526708e-01, 2.65415274e-02,
          1.13601070e-02, 1.49127925e-02, 2.70126283e-01, 4.01396513e-01,
          2.43075296e-01, 9.60415080e-02, 7.20698535e-02, 5.50600328e-02,
          2.38340092e-03, 2.07530893e-03, 4.02899925e-03, 1.42150953e-01,
          4.27695096e-01, 2.33175337e-01, 1.38847390e-02, 1.46108018e-02,
          7.56529626e-03, 1.23899651e-03, 3.72618600e-03, 8.41975771e-03,
          8.39662775e-02, 4.27695096e-01, 1.06648639e-01, 5.12400176e-03,
          1.82813266e-03, 1.45759643e-03, 2.99939904e-02, 7.51098245e-03,
          5.60346898e-03, 2.56172270e-01, 4.27695096e-01, 2.29831532e-01,
          4.19159867e-02, 2.48286650e-02, 4.60902974e-02, 4.84918132e-02,
          5.30664995e-02, 3.66535336e-02, 1.53172150e-01, 4.27695096e-01,
          1.21793933e-01, 2.27212980e-02, 8.36343039e-03, 3.31828222e-02,
          1.03749312e-03, 2.81371735e-03, 1.53318644e-02, 1.76141545e-01,
          3.86962742e-01, 1.60743669e-01, 2.91910656e-02, 8.27274402e-04,
          1.03749312e-03, 6.91808714e-03, 3.90253123e-03, 2.73815747e-02,
          2.88678855e-01, 3.86962742e-01, 1.61704063e-01, 4.53055799e-02,
          6.29412755e-03, 7.15466961e-03, 4.90063503e-02, 5.71402088e-02,
          6.99200854e-02, 2.76297599e-01, 3.86962742e-01, 1.67126030e-01,
          8.31772946e-03, 2.51015765e-03, 2.71306820e-02, 9.32334550e-03,
          6.60795067e-03, 3.43976505e-02, 2.41671875e-01, 3.86962742e-01,
          2.26289332e-01, 8.43562186e-03, 3.95706529e-03, 1.09646143e-02,
          1.18099703e-02, 6.85423100e-03, 3.03022172e-02, 1.00198291e-01,
          1.71168521e-01, 5.05662188e-02, 2.34913677e-02, 1.33427419e-02,
          1.76716540e-02, 1.62999071e-02, 1.05510652e-01, 3.72219294e-01,
          3.72219294e-01, 3.72219294e-01, 1.23484194e-01, 2.63073090e-02,
          1.21354824e-02, 1.81040894e-02, 4.07504290e-03, 3.27641307e-03,
          2.15271056e-01, 2.50758678e-01, 2.18349859e-01, 5.71685061e-02,
          8.25796556e-03, 6.00392977e-03, 8.25798791e-03, 1.36610921e-02,
          1.33821040e-01, 3.72219294e-01, 3.72219294e-01, 2.19142348e-01,
          6.86521158e-02, 1.75655223e-02, 8.52957647e-03, 1.05211949e-02,
          1.30173489e-02, 7.93460310e-02, 3.25522393e-01, 3.25522393e-01,
          2.82293856e-01, 7.03544989e-02, 1.58104878e-02, 6.07909728e-03,
          6.04119757e-03, 3.50202024e-02, 7.88623318e-02, 1.61141127e-01,
          3.25522393e-01, 3.25522393e-01, 6.69925287e-02, 1.85065623e-02,
          6.23714318e-03, 1.11225825e-02, 5.09286262e-02, 1.46763995e-01,
          3.25522393e-01, 3.25522393e-01, 9.93152186e-02, 5.61379828e-02,
          2.07522139e-02, 1.29440473e-02, 1.30969202e-02, 1.17275156e-01,
          1.94946915e-01, 1.11309290e-01, 1.20034531e-01, 3.25522393e-01,
          7.82245174e-02, 1.80935357e-02, 1.05623659e-02, 4.61335778e-02,
          4.64212187e-02, 1.00122377e-01, 1.69580519e-01, 1.10733598e-01,
          2.84109205e-01, 1.00807667e-01, 1.44246832e-01, 4.40067165e-02,
          1.16724707e-02, 9.05948058e-02, 1.48057878e-01, 2.53965229e-01,
          9.31330323e-02, 2.84109205e-01, 1.11782655e-01, 2.84109205e-01,
          2.65944391e-01, 1.30419418e-01, 1.01254962e-01, 1.80936351e-01,
          2.83659488e-01, 8.05213451e-02, 2.84109205e-01, 7.35821202e-02,
          4.48986627e-02, 1.42462412e-02, 5.25905266e-02, 1.42605573e-01,
          1.98955387e-01, 2.84109205e-01, 6.80192485e-02, 2.04142556e-01,
          4.89131883e-02, 1.06236428e-01, 1.36537135e-01, 1.57863125e-01,
          1.45187557e-01, 9.63632911e-02, 1.33362561e-01, 3.10470015e-02,
          8.04326162e-02, 5.27587794e-02, 2.43528366e-01, 3.21475983e-01,
          3.21475983e-01, 1.17949657e-01, 4.68523502e-02, 3.77336442e-02,
          3.69926728e-03, 1.82845835e-02, 1.79221109e-02, 1.95493400e-02,
          1.89853638e-01, 3.21475983e-01, 1.73342720e-01, 8.62037465e-02,
          1.78940982e-01, 2.53212880e-02, 3.00076008e-02, 1.74138993e-02,
          9.45603177e-02, 3.21475983e-01, 3.21475983e-01, 1.26979217e-01,
          3.89155932e-02, 1.34406565e-02, 5.76056773e-03, 1.58970412e-02,
          2.41263490e-02, 4.56889495e-02, 3.21475983e-01, 3.21475983e-01,
          1.18808202e-01, 9.40163508e-02, 6.39136955e-02, 9.23961774e-03,
          2.98598539e-02, 3.81731205e-02, 8.51068199e-02, 2.14417368e-01,
          2.55177885e-01, 7.04800412e-02, 6.38274476e-02, 3.36226374e-02,
          1.13361776e-02, 2.39086766e-02, 3.59440260e-02, 1.61863908e-01,
          3.45726013e-01, 1.52593017e-01, 2.00829789e-01, 1.10912889e-01,
          1.21268313e-02, 1.09916618e-02, 1.76672488e-02, 3.30130048e-02,
          1.02842703e-01, 3.70239556e-01, 3.70239556e-01, 1.46276057e-01,
          7.30422512e-02, 1.00037651e-02, 4.80763149e-03, 4.35753819e-03,
          3.12000364e-02, 1.62115052e-01, 3.70239556e-01, 3.70239556e-01,
          1.32401669e-02, 1.04703698e-02, 1.25302244e-02, 9.50333774e-02,
          2.37076238e-01, 3.11457384e-02, 2.75344271e-02, 9.53491256e-02,
          7.34453052e-02, 4.83968155e-03, 1.10235140e-02, 3.13179493e-02,
          3.45834374e-01, 3.62137347e-01, 1.61368251e-01, 2.69635525e-02,
          2.88174339e-02, 3.00953574e-02, 1.68355778e-02, 4.52926988e-03,
          5.14773373e-03, 1.25561893e-01, 2.18928546e-01, 1.67753585e-02,
          4.42808233e-02, 3.11050177e-01, 3.00080717e-01, 6.88147591e-03,
          1.06481770e-02, 1.63940731e-02, 3.55425775e-01, 3.62137347e-01,
          2.94495136e-01, 7.87226558e-02, 1.08352862e-01, 1.35947943e-01,
          1.64826792e-02, 2.40622498e-02, 3.74771915e-02, 3.40447485e-01,
          4.21383679e-01, 2.41017088e-01, 1.03375681e-01, 1.32007003e-01,
          3.48904133e-02, 7.30699226e-02, 6.55625165e-02, 2.35561561e-02,
          2.92002559e-02, 8.71051252e-02, 4.69560064e-02, 9.03901458e-02,
          1.86056927e-01, 1.03379555e-01, 4.95973341e-02, 2.91341506e-02,
          3.15866098e-02, 2.46138364e-01, 4.21383679e-01, 4.21383679e-01,
          1.18138798e-01, 1.19759664e-01, 1.13080315e-01, 9.77172852e-02,
          6.40280917e-02, 5.42422533e-02, 2.33749337e-02, 6.20514452e-02,
          8.85568261e-02, 4.84174788e-02, 1.39769182e-01, 1.62853152e-01,
          9.27409306e-02, 4.96824495e-02, 5.26080914e-02, 7.48855248e-02,
          3.06560278e-01, 2.27999508e-01, 3.27483378e-02, 5.09520210e-02,
          4.53282706e-02, 3.06560278e-01, 1.65319294e-01, 1.13662824e-01,
          6.58563077e-02, 2.84856677e-01, 1.83449030e-01, 5.91105260e-02,
          9.64924544e-02, 2.23446965e-01, 6.00528568e-02, 3.30122188e-02,
          6.17518537e-02, 1.39268711e-01, 3.06560278e-01, 1.09431997e-01,
          2.04949658e-02, 4.61263992e-02, 4.75881919e-02, 1.97614133e-01,
          9.04798433e-02, 3.06560278e-01, 3.06560278e-01, 2.80762285e-01,
          1.12312376e-01, 5.94154634e-02, 1.14723198e-01, 1.66457534e-01,
          2.29974911e-01, 1.67353928e-01, 1.15180656e-01, 1.31259099e-01,
          1.22141458e-01, 3.62717248e-02, 4.55808602e-02, 3.57489362e-02,
          1.50347531e-01, 2.75883764e-01, 2.75883764e-01, 1.16496168e-01,
          1.74515843e-01, 2.75883764e-01, 7.55722523e-02, 6.67381734e-02,
          7.17586949e-02, 1.65488362e-01, 1.23587854e-01, 1.32916987e-01,
          2.75883764e-01, 2.75883764e-01, 8.79326016e-02, 2.64358148e-02,
          2.58386452e-02, 2.95968279e-02, 8.19884613e-02, 2.75883764e-01,
          2.75883764e-01, 2.75883764e-01, 2.60962456e-01, 9.55084935e-02,
          4.50838543e-02, 2.01596245e-02, 4.31553498e-02, 1.29895061e-01,
          2.94762224e-01, 2.94762224e-01, 2.72042900e-02, 4.94537242e-02,
          1.43452138e-01, 3.55213247e-02, 2.82647964e-02, 5.16293198e-02,
          1.80453405e-01, 2.94762224e-01, 2.87412763e-01, 6.90035075e-02,
          4.30524051e-02, 1.02918267e-01, 3.41808759e-02, 3.70058673e-03,
          7.64802471e-02, 2.94762224e-01, 2.94762224e-01, 2.64680892e-01,
          1.70839161e-01, 9.83357504e-02, 6.70976937e-02, 3.59402224e-02,
          1.49673400e-02, 4.23074290e-02, 1.08257502e-01, 2.41406113e-01,
          2.94762224e-01, 2.94762224e-01, 1.10125385e-01, 2.58796737e-02,
          3.25942948e-03, 4.89280606e-03, 3.74710262e-02, 1.41458854e-01,
          3.18159997e-01, 2.40963981e-01, 5.90410829e-02, 2.95876581e-02,
          7.51936138e-02, 3.39581929e-02, 2.69538607e-03, 5.79442605e-02,
          2.10166842e-01, 3.18159997e-01, 2.18336180e-01, 1.64628215e-02,
          1.48667861e-02, 2.70960536e-02, 2.10233387e-02, 1.88786034e-02,
          1.12414673e-01, 3.18159997e-01, 3.18159997e-01, 3.18159997e-01,
          1.87671944e-01, 2.64788810e-02, 6.19753683e-03, 4.33348771e-03,
          1.58824213e-03, 3.08786966e-02, 1.06074952e-01, 3.18159997e-01,
          3.18159997e-01, 6.30438626e-02, 1.26073718e-01, 5.11996448e-02,
          2.94000171e-02, 4.41454500e-02, 7.76992068e-02, 1.72084451e-01,
          2.74906904e-01, 1.50966614e-01, 2.93557942e-02, 2.48174835e-02,
          3.45336273e-02, 2.00013574e-02, 5.12676090e-02, 1.15960293e-01,
          2.74906904e-01, 2.74906904e-01, 1.49284601e-01, 6.36008084e-02,
          4.50429283e-02, 5.98658063e-02, 6.27370924e-02, 1.67464584e-01,
          1.70765638e-01, 2.74906904e-01, 2.74906904e-01, 2.74906904e-01,
          1.17196299e-01, 1.88240007e-01, 7.44159818e-02, 5.11890091e-02,
          1.03513733e-01, 9.46797803e-02, 1.51252002e-01, 2.74906904e-01,
          2.74906904e-01, 1.14239223e-01, 1.07707784e-01, 7.59648532e-02,
          1.32028505e-01, 1.23216048e-01, 1.38374463e-01, 2.74906904e-01,
          2.43508026e-01, 9.66977179e-02, 4.31919210e-02, 4.65474129e-02,
          5.61280288e-02, 9.73028317e-02, 2.62963802e-01, 1.78700715e-01,
          2.74366319e-01, 1.09554917e-01, 2.54743677e-02, 9.18122940e-03,
          1.03000931e-01, 2.74366319e-01, 1.60172671e-01, 1.89308703e-01,
          1.29300520e-01, 2.33526304e-01, 2.74366319e-01, 1.80200025e-01,
          7.47726038e-02, 7.88620785e-02, 7.54465982e-02, 1.70972869e-01,
          1.59343198e-01, 1.34850666e-01, 2.74366319e-01, 1.71688333e-01,
          4.27268632e-02, 2.00509224e-02, 8.20745379e-02, 1.24772184e-01,
          1.74931765e-01, 1.99107960e-01, 1.77107498e-01, 2.74366319e-01,
          1.18014283e-01, 2.11680159e-02, 5.04373154e-03, 1.88326851e-01,
          2.77413219e-01, 2.04359472e-01, 1.93984270e-01, 1.06996633e-01,
          2.06019655e-01, 1.41160280e-01, 8.69475380e-02, 3.31096761e-02,
          9.77064073e-02, 2.02249423e-01, 9.07473490e-02, 1.05759881e-01,
          6.46015555e-02, 1.21453986e-01, 1.08474761e-01, 3.93728353e-02,
          2.05070693e-02, 1.29320502e-01, 2.21201330e-01, 2.53200203e-01,
          2.77413219e-01, 2.58580387e-01, 2.77413219e-01, 1.20649464e-01,
          6.64181709e-02, 2.48653609e-02, 7.72877187e-02, 1.11666121e-01,
          1.48842111e-01, 2.77413219e-01, 2.77413219e-01, 2.03365877e-01,
          1.50522456e-01, 9.15786400e-02, 9.42322910e-02, 1.75621063e-01,
          3.02402020e-01, 1.08535349e-01, 3.44901904e-02, 2.55141910e-02,
          1.05192237e-01, 2.94408370e-02, 1.94109157e-02, 1.06407627e-01,
          2.02121034e-01, 3.02402020e-01, 1.82814568e-01, 2.13255957e-02,
          3.03152832e-03, 2.71221232e-02, 1.54086143e-01, 6.93885982e-02,
          8.31455216e-02, 1.32567555e-01, 3.02402020e-01, 1.68205351e-01,
          1.66790292e-01, 1.95434704e-01, 1.83563352e-01, 8.76678005e-02,
          1.10001981e-01, 3.02402020e-01, 3.02402020e-01, 3.02402020e-01,
          2.17881575e-01, 5.75576499e-02, 5.18388674e-02, 1.02464393e-01,
          8.06062389e-03, 8.47541541e-03, 2.87049979e-01, 3.07198703e-01,
          1.63332105e-01, 5.02929352e-02, 9.05350223e-03, 3.81886889e-03,
          6.03233092e-03, 4.83038686e-02, 8.37843716e-02, 3.07198703e-01,
          3.07198703e-01, 1.21039420e-01, 3.12007908e-02, 1.96036864e-02,
          1.56858210e-02, 2.61892397e-02, 6.82401955e-02, 8.38021263e-02,
          3.07198703e-01, 3.07198703e-01, 1.80048704e-01, 7.37931207e-02,
          2.74670701e-02, 3.22941728e-02, 5.42100817e-02, 2.70259857e-01,
          1.06898658e-01, 2.10306838e-01, 3.07198703e-01, 1.22429423e-01,
          6.44960478e-02, 7.50096962e-02, 1.15482070e-01, 2.67301410e-01,
          1.18472338e-01, 2.04557359e-01, 2.72631675e-01, 2.12688744e-01,
          6.94685355e-02, 3.25467549e-02, 2.23493371e-02, 2.08569393e-02,
          4.51581515e-02, 1.59594059e-01, 2.56570458e-01, 1.82203889e-01,
          1.47504061e-01, 1.85772032e-01, 4.90307547e-02, 1.48752267e-02,
          3.68859433e-02, 8.69788453e-02, 3.04567695e-01, 1.57693967e-01,
          7.49389753e-02, 1.04921922e-01, 5.90404272e-02, 3.64247225e-02,
          1.11299284e-01, 2.13747963e-01, 3.04567695e-01, 3.04567695e-01,
          1.98198393e-01, 1.11492030e-01, 1.66330948e-01, 5.71382530e-02,
          4.86078411e-02, 8.98867473e-02, 2.27650985e-01, 3.04567695e-01,
          1.79239884e-01, 2.67024517e-01, 2.97967017e-01, 1.50004610e-01,
          2.97967017e-01, 9.02328715e-02, 4.46982495e-02, 6.11633733e-02,
          1.43108785e-01, 1.52489424e-01, 1.76258028e-01, 2.97967017e-01,
          5.98515160e-02, 1.07293777e-01, 5.82861528e-02, 6.51700050e-02,
          1.20300829e-01, 2.01473489e-01, 2.97967017e-01, 1.26001909e-01,
          8.48123878e-02, 1.18612014e-01, 3.35055590e-02, 3.37684415e-02,
          5.73952384e-02, 1.47441670e-01, 2.97967017e-01, 2.97967017e-01,
          7.09992349e-02, 2.48054136e-02, 1.27947954e-02, 7.94228166e-03,
          1.36354165e-02, 5.21798953e-02, 9.94587392e-02, 2.97967017e-01,
          1.19088203e-01, 1.53443106e-02, 5.60159124e-02, 1.85346641e-02,
          2.05464903e-02, 1.68006066e-02, 2.89611369e-02, 2.62771487e-01,
          2.83601105e-01, 1.83391884e-01, 2.41303463e-02, 1.59575362e-02,
          1.94635540e-02, 2.89522037e-02, 1.62995458e-02, 4.68173623e-02,
          3.60857338e-01, 3.60857338e-01, 3.60857338e-01, 2.98027191e-02,
          1.95205759e-03, 3.19948164e-03, 8.99947621e-03, 1.10831428e-02,
          2.44130976e-02, 4.33938913e-02, 3.60857338e-01, 3.60857338e-01,
          1.19914124e-02, 1.16082113e-02, 3.31931375e-02, 2.25765761e-02,
          6.64735958e-03, 1.51556162e-02, 4.76769842e-02, 3.60857338e-01,
          1.49863780e-01, 2.54372600e-02, 1.18130893e-02, 1.37529438e-02,
          1.77934673e-02, 1.65559556e-02, 3.95915806e-02, 3.39816779e-01,
          3.39816779e-01, 1.95424050e-01, 2.05405988e-02, 1.03259077e-02,
          4.17773379e-03, 6.28365343e-03, 2.44373530e-02, 5.05612344e-02,
          3.39816779e-01, 3.39816779e-01, 2.75393158e-01, 1.18862549e-02,
          1.41264033e-02, 2.15907898e-02, 1.51463952e-02, 1.30108371e-02,
          1.38844075e-02, 8.29891637e-02, 3.18406075e-01, 3.39816779e-01,
          2.10864805e-02, 1.43934535e-02, 5.63468365e-03, 1.18388869e-02,
          3.02656256e-02, 2.42726877e-02, 2.19979584e-01, 3.39816779e-01,
          7.77528435e-02, 1.73485521e-02, 6.37143245e-03, 7.63714463e-02,
          1.17324278e-01, 2.50665732e-02, 7.22241029e-02, 2.90038466e-01,
          2.90038466e-01, 8.78078192e-02, 4.80038747e-02, 4.27955650e-02,
          1.80689976e-01, 2.90038466e-01, 2.90038466e-01, 1.85159475e-01,
          2.26350248e-01, 2.90038466e-01, 2.75123090e-01, 3.09375525e-02,
          8.68559908e-03, 8.94922484e-03, 2.23012995e-02, 1.74583029e-02,
          6.65792748e-02, 1.98013604e-01, 2.90038466e-01, 2.19854116e-01,
          9.45359319e-02, 4.10157442e-02, 1.82252806e-02, 9.13886130e-02,
          6.66218922e-02, 1.50084615e-01, 1.74785614e-01, 2.90038466e-01,
          1.97143346e-01, 7.05444589e-02, 6.98820278e-02, 6.69405162e-02,
          3.11296225e-01, 3.11296225e-01, 1.20739289e-01, 1.32459477e-01,
          3.11296225e-01, 2.67827839e-01, 4.52683121e-02, 3.19111198e-02,
          1.98888648e-02, 3.36204730e-02, 5.42035736e-02, 2.01415457e-02,
          1.20115422e-01, 3.11296225e-01, 2.80214906e-01, 1.30885527e-01,
          7.60064647e-02, 1.75278913e-02, 8.19209665e-02, 7.81781077e-02,
          7.30054155e-02, 8.17668289e-02, 3.11296225e-01, 3.11296225e-01,
          7.51327798e-02, 5.07489964e-02, 2.84270924e-02, 3.30080166e-02,
          2.14582495e-02, 9.28889029e-03, 4.34345938e-02, 3.11296225e-01,
          3.10328626e-03, 5.82295842e-03, 4.82455380e-02, 1.21644601e-01,
          2.98829883e-01, 6.96716905e-02, 5.33164525e-03, 3.35057219e-03,
          5.11583406e-03, 3.09153111e-03, 2.46619154e-02, 3.47205609e-01,
          3.47205609e-01, 2.51950830e-01, 3.82083915e-02, 1.00469682e-02,
          1.22496365e-02, 1.04146563e-02, 6.18040282e-03, 3.26024788e-03,
          4.24106680e-02, 2.91037738e-01, 3.47205609e-01, 7.85887763e-02,
          1.05766235e-02, 1.35199365e-03, 5.65504888e-03, 4.46674740e-03,
          2.99193356e-02, 3.47205609e-01, 3.47205609e-01, 3.47205609e-01,
          4.58094180e-02, 3.77402711e-03, 1.98073758e-04, 3.99696780e-03,
          7.04998989e-03, 4.75055315e-02, 3.33821476e-01, 3.33821476e-01,
          6.23090677e-02, 9.62359831e-03, 5.81100676e-03, 4.87205526e-03,
          6.32982282e-03, 4.90287729e-02, 8.94057974e-02, 3.33821476e-01,
          3.33821476e-01, 1.37021601e-01, 4.15701941e-02, 2.20219395e-03,
          3.51770874e-03, 1.94728635e-02, 1.12473071e-02, 4.23371829e-02,
          3.33821476e-01, 3.33821476e-01, 2.35826999e-01, 1.31657589e-02,
          4.20706486e-03, 5.32369595e-04, 1.03323190e-02, 1.28324693e-02,
          3.79192755e-02, 2.43026882e-01, 3.33821476e-01, 2.44817168e-01,
          1.65102109e-02, 1.05667682e-02, 2.30693468e-03, 1.05110938e-02,
          1.84318963e-02, 9.76729989e-02, 3.21861655e-01, 2.26527974e-01,
          9.03252959e-02, 2.64132712e-02, 1.68336858e-03, 4.17464459e-03,
          6.79816213e-03, 2.74212714e-02, 3.43414098e-01, 3.43414098e-01,
          1.59795314e-01, 2.07819976e-02, 3.15560377e-03, 7.19151809e-04,
          2.85458332e-03, 1.69266120e-03, 1.38100749e-03, 5.11910953e-02,
          3.37190300e-01, 3.43414098e-01, 1.51101306e-01, 5.47381816e-03,
          1.89206190e-03, 4.83180047e-04, 8.47778399e-04, 1.35752829e-02,
          2.55483061e-01, 3.43414098e-01, 3.43414098e-01, 4.24997136e-02,
          7.04389822e-04, 0., 0., 1.33537804e-03, 2.22871363e-01,
          3.09358686e-01, 3.04588139e-01, 2.93242205e-02, 2.25901678e-02,
          5.86197944e-03, 2.83433893e-03, 4.45516920e-03, 3.94519754e-02,
          3.09358686e-01, 2.81056285e-01, 9.04884115e-02, 3.09358686e-01,
          2.87572235e-01, 5.53069934e-02, 2.57719923e-02, 2.29008831e-02,
          7.24803284e-02, 5.31860627e-02, 2.33209923e-01, 1.87250167e-01,
          1.11777224e-01, 1.13919489e-01, 2.13452466e-02, 5.02559589e-03,
          4.07786295e-03, 2.16947850e-02, 5.55378124e-02, 4.99038287e-02,
          5.71040846e-02, 3.09358686e-01, 3.09358686e-01, 2.19984457e-01,
          1.20074958e-01, 2.89992969e-02, 4.87336479e-02, 1.46662340e-01,
          1.20772488e-01, 1.44675449e-01, 2.88326949e-01, 2.88326949e-01,
          7.93570504e-02, 4.31462713e-02, 3.61057408e-02, 3.91107649e-02,
          8.77146870e-02, 1.34404212e-01, 1.13177992e-01, 2.87886113e-01,
          2.88326949e-01, 2.08363727e-01, 4.88300435e-02, 6.87133968e-02,
          9.33860540e-02, 4.18963991e-02, 4.36149687e-02, 7.59619698e-02,
          2.88326949e-01, 2.88326949e-01, 2.27142408e-01, 1.30822122e-01,
          4.15753387e-02, 4.55688462e-02, 1.19773887e-01, 1.27407014e-01,
          1.48640528e-01, 2.88326949e-01, 2.88326949e-01, 1.64029688e-01,
          5.34116887e-02, 2.85187718e-02, 3.60441357e-02, 1.11775354e-01,
          1.17085204e-01, 8.71519297e-02, 2.06234753e-01, 2.61479825e-01,
          2.61479825e-01, 4.68940400e-02, 7.90602565e-02, 2.08966732e-01,
          6.74114674e-02, 8.56744796e-02, 8.25511292e-02, 1.80046409e-01,
          2.06945345e-01, 1.20792486e-01, 7.02330247e-02, 7.89167136e-02,
          1.68973282e-01, 1.68042794e-01, 2.23256126e-01, 2.48997435e-01,
          2.61479825e-01, 2.61479825e-01, 1.67504102e-01, 2.34997943e-02,
          3.31085995e-02, 3.88942696e-02, 1.28223911e-01, 2.61479825e-01,
          2.60112226e-01, 2.61479825e-01, 1.69242457e-01, 5.75953759e-02,
          5.77237308e-02, 1.12496547e-01, 8.43559280e-02, 2.88709328e-02,
          1.68742925e-01, 9.42566693e-02, 1.75117061e-01, 2.32222334e-01,
          1.22684561e-01, 1.07556805e-01, 9.11149085e-02, 6.46141991e-02,
          5.68889454e-02, 1.51185155e-01, 6.80957884e-02, 1.15146048e-01,
          1.56529695e-01, 1.49529323e-01, 1.78250462e-01, 1.82108864e-01,
          1.21415384e-01, 8.82653520e-02, 2.74422348e-01, 2.00972602e-01,
          2.74422348e-01, 2.65184373e-01, 9.35869887e-02, 1.07236393e-01,
          1.19147293e-01, 8.16691592e-02, 1.09488435e-01, 2.74422348e-01,
          1.17746025e-01, 2.74422348e-01, 2.74422348e-01, 2.05150083e-01,
          1.36765093e-01, 1.04184426e-01, 1.76590696e-01, 7.86760002e-02,
          4.68987375e-02, 4.40381952e-02, 1.21372305e-01, 2.26222157e-01,
          1.48157895e-01, 1.92337781e-01, 1.82103470e-01, 1.58794925e-01,
          1.08583517e-01, 1.01376422e-01, 1.51472583e-01, 1.80558234e-01,
          2.42721945e-01, 9.64296162e-02, 9.10557806e-02, 1.75999030e-01,
          1.32460475e-01, 1.44947529e-01, 1.39668599e-01, 5.48280776e-02,
          2.28735492e-01, 2.67793655e-01, 2.04519302e-01, 1.97019279e-01,
          2.38477543e-01, 2.55027294e-01, 1.14590064e-01, 6.84893951e-02,
          4.37456816e-02, 6.94688410e-02, 1.12734884e-01, 1.55341730e-01,
          2.66716987e-01, 2.67793655e-01, 1.63593069e-01, 1.06549419e-01,
          1.07719943e-01, 1.63047895e-01, 1.83659568e-01, 1.48542941e-01,
          5.97280823e-02, 9.00304466e-02, 2.32066408e-01, 1.15252443e-01,
